{"learner":{"attributes":{"best_iteration":"99","best_ntree_limit":"100","scikit_learn":"{\"use_label_encoder\": true, \"n_estimators\": 100, \"objective\": \"binary:logistic\", \"max_depth\": 10, \"learning_rate\": 0.1, \"verbosity\": null, \"booster\": null, \"tree_method\": null, \"gamma\": null, \"min_child_weight\": null, \"max_delta_step\": null, \"subsample\": null, \"colsample_bytree\": null, \"colsample_bylevel\": null, \"colsample_bynode\": null, \"reg_alpha\": null, \"reg_lambda\": null, \"scale_pos_weight\": null, \"base_score\": null, \"missing\": NaN, \"num_parallel_tree\": null, \"random_state\": null, \"n_jobs\": null, \"monotone_constraints\": null, \"interaction_constraints\": null, \"importance_type\": null, \"gpu_id\": null, \"validate_parameters\": null, \"predictor\": null, \"enable_categorical\": false, \"classes_\": [0, 1], \"n_classes_\": 2, \"_le\": {\"classes_\": [0, 1]}, \"_estimator_type\": \"classifier\"}"},"feature_names":["Temperatura","Lluvia","Tipo_No laborable","Hora_01","Hora_02","Hora_03","Hora_04","Hora_05","Hora_06","Hora_07","Hora_08","Hora_09","Hora_10","Hora_11","Hora_12","Hora_13","Hora_14","Hora_15","Hora_16","Hora_17","Hora_18","Hora_19","Hora_20","Hora_21","Hora_22","Hora_23","id_estacion_148BAEcobici","id_estacion_175BAEcobici","id_estacion_349BAEcobici","id_estacion_94BAEcobici"],"feature_types":[],"gradient_booster":{"model":{"gbtree_model_param":{"num_trees":"100","size_leaf_vector":"0"},"tree_info":[0,0,0,0,0,0,0,0,0,0,0,0,0,0,0,0,0,0,0,0,0,0,0,0,0,0,0,0,0,0,0,0,0,0,0,0,0,0,0,0,0,0,0,0,0,0,0,0,0,0,0,0,0,0,0,0,0,0,0,0,0,0,0,0,0,0,0,0,0,0,0,0,0,0,0,0,0,0,0,0,0,0,0,0,0,0,0,0,0,0,0,0,0,0,0,0,0,0,0,0],"trees":[{"base_weights":[1.4861144E0,1.3873097E0,1.7506146E0,1.2618421E0,1.8703527E0,1.6325052E0,1.9956379E0,1.0884889E0,1.847097E0,1.8835342E0,1.5828221E0,1.8364217E0,1.4910985E0,7.678768E-1,1.5310835E0,1.8798535E0,1.5098039E0,1.3824176E0,1.8850102E0,8.726655E-1,1.01876676E-1,1.7255899E0,1.0756303E0,1E0,1.8899628E0,1.5510204E0,3.3333334E-1,1.4180564E0,5.882353E-1,9.305432E-1,-3.0357143E-1,-1.85567E-1,6.264151E-1,1.7488585E0,1.2061069E0,1.1318102E0,-1.4285715E-1,1.5957447E0,3.3333334E-1,-0E0,5E-1,1.4544357E0,6.511628E-1,3.561644E-1,1.5E0,9.86231E-1,-2.1800947E-1,-6.242038E-1,4.225352E-1,-2.8077754E-1,1.5384616E0,7.692308E-1,-1.0909091E0,1.7722534E0,1.2753624E0,2.5E-1,1.2941177E0,1.1882461E0,-1.1320755E-1,-3.1111112E-1,4E-1,1.6424581E0,4.6153846E-1,-0E0,5E-1,1.4873097E0,7.764706E-1,2.0689656E-1,8.196721E-1,-1.4285715E-1,6.122449E-1,1.0469172E0,-1.6513762E-1,-5.0340134E-1,4.117647E-1,-1.1384616E0,-2.5E-1,5.714286E-1,-1.0526316E-1,-3.783784E-1,1.6521739E0,8.425532E-1,-5E-1,1.7980484E0,1.2907802E0,1.0107527E0,1.6734694E0,6.666667E-1,-1.8181819E-1,1.3904762E0,4.4444445E-1,1.2476008E0,-1.1764706E-1,-5E-1,8.235294E-1,-1.5384616E-1,-8E-1,-5E-1,9.0909094E-1,1.516689E0,8.780488E-1,2.857143E-1,9.508197E-1,3.1578946E-1,-0E0,9.3333334E-1,4E-1,1.0526316E-1,-4.6153846E-1,1.1089263E0,-1.14285715E-1,-4.3243244E-1,3.783784E-1,-8.235294E-1,-2.1686748E-1,2.9508197E-1,9.0909094E-1,-1.2413793E0,-1.8181819E-1,-1.5873016E-1,-3.783784E-1,2.5E-1,6.363636E-1,-4.6153846E-1,4E-1,-4.730679E-1,1.6190476E0,9.1555554E-1,-5.714286E-1,1.8220224E0,1.3529412E0,1.0927835E0,1.5833334E0,2.857143E-1,1.0843374E0,-0E0,5.714286E-1,1.3124368E0,3.508772E-2,-2.6086956E-1,6.666667E-1,-7.096774E-1,1.5384616E-1,1E0,2.2222222E-1,-3.6363637E-1,9.52381E-2,1.5483415E0,9.1764706E-1,2.6086956E-1,1.0476191E0,3.3333334E-1,-0E0,7.4509805E-1,1.4285715E0,1.5384616E-1,5.4545456E-1,1.1759233E0,-5.6074765E-2,-4.113475E-1,4.6575344E-1,-8.3870965E-1,-1.3333334E-1,8.5714287E-1,2.5E-1,-9.1525424E-1,-1.5384616E-1,3.0769232E-1,-4.262295E-1,7.692308E-1,1.5384616E-1,-1.8867925E-1,-0E0,-2.6666668E-1,-5.4545456E-1,6.666667E-1,-1.8181819E-1,-5.693431E-1,1.6E0,9.9065423E-1,-4E-1,1.8471824E0,1.3777778E0,6E-1,1.4333333E0,1.1460674E0,3.3333334E-1,8E-1,-5E-1,1.1666666E0,4E-1,1.3681964E0,2.857143E-1,-1.8181819E-1,5.882353E-1,-5.1428574E-1,4E-1,1.8181819E-1,-1E0,-0E0,2.2222222E-1,2.2222222E-1,-5.882353E-1,2.2222222E-1,-0E0,1.5787902E0,9.756098E-1,1.2E0,3.529412E-1,1.04E0,4E-1],"categories":[],"categories_nodes":[],"categories_segments":[],"categories_sizes":[],"default_left":[true,true,true,true,true,true,false,true,false,false,false,true,true,true,true,true,true,true,false,true,true,true,true,false,false,true,true,true,true,true,true,true,true,true,true,true,true,true,true,false,false,true,true,true,false,true,true,true,true,true,false,true,false,true,true,true,true,true,true,true,true,false,false,false,false,true,true,true,true,true,false,true,true,true,true,true,true,true,true,true,false,true,false,true,true,true,false,false,false,false,true,true,true,true,true,true,false,false,false,true,true,true,true,false,false,false,true,false,false,true,true,true,true,true,true,true,false,false,false,true,true,true,false,false,false,true,false,true,false,true,true,true,false,true,true,false,false,true,true,true,false,true,true,false,false,true,true,true,false,false,true,false,false,true,false,false,false,false,false,false,false,false,false,false,false,false,false,false,false,false,false,false,false,false,false,false,false,false,false,false,false,false,false,false,false,false,false,false,false,false,false,false,false,false,false,false,false,false,false,false,false,false,false,false,false,false,false,false,false,false,false],"id":0,"left_children":[1,3,5,7,9,11,-1,13,-1,-1,-1,15,17,19,21,23,25,27,-1,29,31,33,35,-1,-1,37,39,41,43,45,47,49,51,53,55,57,59,61,63,-1,-1,65,67,69,-1,71,73,75,77,79,-1,81,-1,83,85,87,89,91,93,95,97,-1,-1,-1,-1,99,101,103,105,107,-1,109,111,113,115,117,119,121,123,125,-1,127,-1,129,131,133,-1,-1,-1,-1,135,137,139,141,143,145,-1,-1,-1,147,149,151,153,-1,-1,-1,155,-1,-1,157,159,161,163,165,167,169,-1,-1,-1,171,173,175,-1,-1,-1,177,-1,179,-1,181,183,185,-1,187,189,-1,-1,191,193,195,-1,197,199,-1,-1,201,203,205,-1,-1,207,-1,-1,209,-1,-1,-1,-1,-1,-1,-1,-1,-1,-1,-1,-1,-1,-1,-1,-1,-1,-1,-1,-1,-1,-1,-1,-1,-1,-1,-1,-1,-1,-1,-1,-1,-1,-1,-1,-1,-1,-1,-1,-1,-1,-1,-1,-1,-1,-1,-1,-1,-1,-1,-1,-1,-1,-1,-1,-1,-1],"loss_changes":[1.3472852E2,2.295044E2,3.79375E1,3.0641504E2,4.8828125E-4,2.5116455E1,0E0,3.319729E2,0E0,0E0,0E0,2.711914E0,2.2042358E1,9.506885E1,8.542578E1,1.1453857E0,1.9559784E0,1.2044067E1,0E0,8.047815E1,2.8235828E1,6.2160645E0,2.0526886E1,0E0,0E0,2.1366425E0,1.6666666E-1,1.1182068E1,3.9621272E0,7.20426E1,1.3301293E1,2.0334625E1,1.7087688E1,5.017578E0,2.4323082E0,2.0124542E1,1.4031746E0,1.7321243E0,1.6666666E-1,0E0,0E0,8.077698E0,1.4399681E0,2.4196255E0,0E0,7.502344E1,9.6881695E0,7.268545E0,1.4550462E0,2.2462273E1,0E0,6.167923E0,0E0,5.4227295E0,1.9428635E0,8.409091E-1,1.8177414E0,2.1249115E1,5.2125416E0,7.418804E-1,2.172727E0,0E0,0E0,0E0,0E0,5.720703E0,1.5465488E0,1.633394E-1,3.5409832E-1,6.0208213E-1,0E0,7.340979E1,8.081329E0,3.1923895E0,7.182431E-1,1.3741989E0,2.211498E-1,1.3311672E-1,1.0396761E0,2.1759941E1,0E0,6.5875854E0,0E0,3.822876E0,3.1160355E-1,9.306183E-1,0E0,0E0,0E0,0E0,2.539683E-1,2.0433044E1,1.6061381E0,1.480149E0,2.2875834E-1,5.441226E-1,0E0,0E0,0E0,5.6801147E0,1.8721409E0,9.523809E-2,4.3440342E-1,0E0,0E0,0E0,9.510487E-2,0E0,0E0,7.54834E1,9.237728E0,4.3843064E0,9.227798E-1,9.034443E-1,2.4099727E0,9.0290034E-1,0E0,0E0,0E0,7.48727E-2,2.7190804E-2,8.409091E-1,0E0,0E0,0E0,2.2216639E1,0E0,5.95356E0,0E0,3.6723633E0,1.19804E0,5.9929085E-1,0E0,1.8142856E0,7.0240974E-1,0E0,0E0,1.3764038E1,1.8166807E0,2.131677E0,0E0,2.187683E0,3.4188032E-2,0E0,0E0,8.544266E-1,6.349206E-2,4.637451E0,0E0,0E0,1.2436962E0,0E0,0E0,8.8156843E-1,0E0,0E0,0E0,0E0,0E0,0E0,0E0,0E0,0E0,0E0,0E0,0E0,0E0,0E0,0E0,0E0,0E0,0E0,0E0,0E0,0E0,0E0,0E0,0E0,0E0,0E0,0E0,0E0,0E0,0E0,0E0,0E0,0E0,0E0,0E0,0E0,0E0,0E0,0E0,0E0,0E0,0E0,0E0,0E0,0E0,0E0,0E0,0E0,0E0,0E0,0E0,0E0,0E0,0E0,0E0,0E0,0E0],"parents":[2147483647,0,0,1,1,2,2,3,3,4,4,5,5,7,7,11,11,12,12,13,13,14,14,15,15,16,16,17,17,19,19,20,20,21,21,22,22,25,25,26,26,27,27,28,28,29,29,30,30,31,31,32,32,33,33,34,34,35,35,36,36,37,37,38,38,41,41,42,42,43,43,45,45,46,46,47,47,48,48,49,49,51,51,53,53,54,54,55,55,56,56,57,57,58,58,59,59,60,60,65,65,66,66,67,67,68,68,69,69,71,71,72,72,73,73,74,74,75,75,76,76,77,77,78,78,79,79,81,81,83,83,84,84,85,85,90,90,91,91,92,92,93,93,94,94,95,95,99,99,100,100,101,101,102,102,106,106,109,109,110,110,111,111,112,112,113,113,114,114,115,115,119,119,120,120,121,121,125,125,127,127,129,129,130,130,131,131,133,133,134,134,137,137,138,138,139,139,141,141,142,142,145,145,146,146,147,147,150,150,153,153],"right_children":[2,4,6,8,10,12,-1,14,-1,-1,-1,16,18,20,22,24,26,28,-1,30,32,34,36,-1,-1,38,40,42,44,46,48,50,52,54,56,58,60,62,64,-1,-1,66,68,70,-1,72,74,76,78,80,-1,82,-1,84,86,88,90,92,94,96,98,-1,-1,-1,-1,100,102,104,106,108,-1,110,112,114,116,118,120,122,124,126,-1,128,-1,130,132,134,-1,-1,-1,-1,136,138,140,142,144,146,-1,-1,-1,148,150,152,154,-1,-1,-1,156,-1,-1,158,160,162,164,166,168,170,-1,-1,-1,172,174,176,-1,-1,-1,178,-1,180,-1,182,184,186,-1,188,190,-1,-1,192,194,196,-1,198,200,-1,-1,202,204,206,-1,-1,208,-1,-1,210,-1,-1,-1,-1,-1,-1,-1,-1,-1,-1,-1,-1,-1,-1,-1,-1,-1,-1,-1,-1,-1,-1,-1,-1,-1,-1,-1,-1,-1,-1,-1,-1,-1,-1,-1,-1,-1,-1,-1,-1,-1,-1,-1,-1,-1,-1,-1,-1,-1,-1,-1,-1,-1,-1,-1,-1,-1],"split_conditions":[5.149447E-1,9.8159724E-1,3.8428658E-1,1.0876544E0,2.1796067E0,-1.9471592E-1,1.9956379E-1,8.003278E-1,1.8470971E-1,1.8835342E-1,1.582822E-1,1.0579E0,1.2342317E0,1.2342317E0,4.1769022E-1,-2.134002E0,2.2665148E0,2.2665148E0,1.8850103E-1,2.2268393E0,3.8428658E-1,2.2268393E0,2.2268393E0,1E-1,1.8899629E-1,2.1743662E0,-7.050544E-1,2.1796067E0,1.0579E0,2.167859E0,3.8428658E-1,2.4735818E0,1.0579E0,2.167859E0,-1.4195282E0,2.167859E0,1.0579E0,2.1796067E0,-8.0712205E-1,-0E0,5E-2,2.2394016E0,2.1355484E-1,2.1355484E-1,1.5E-1,2.219936E0,3.8428658E-1,-3.9885128E-1,6.218256E-1,2.4645753E0,1.5384616E-1,2.167859E0,-1.0909092E-1,2.157547E0,3.8428658E-1,-1.827799E0,1.0579E0,2.157547E0,1.0579E0,1.6425025E0,8.25961E-1,1.6424581E-1,4.6153847E-2,-0E0,5E-2,2.1981986E0,2.1355484E-1,9.419464E-3,8.25961E-1,9.419464E-3,6.122449E-2,2.167859E0,3.8428658E-1,-1.9471592E-1,8.25961E-1,1.0579E0,6.218256E-1,-8.0712205E-1,1.0300963E0,3.1989586E0,1.6521738E-1,2.2268393E0,-5E-2,2.167859E0,3.8428658E-1,-1.4195282E0,1.6734694E-1,6.666667E-2,-1.818182E-2,1.3904762E-1,-6.029867E-1,2.219936E0,1.8466378E0,1.6425025E0,1.4383671E0,1.0300963E0,-8.0000006E-2,-5E-2,9.090909E-2,2.1743662E0,9.419464E-3,1.0579E0,1.0579E0,3.1578947E-2,-0E0,9.3333334E-2,1.0300963E0,1.0526316E-2,-4.6153847E-2,2.157547E0,3.8428658E-1,-3.9885128E-1,-1.2153928E0,1.0579E0,2.1355484E-1,-1.2153928E0,9.090909E-2,-1.2413793E-1,-1.818182E-2,4.1769022E-1,1.0579E0,-1.2153928E0,6.363636E-2,-4.6153847E-2,4.0000003E-2,2.9601758E0,1.6190477E-1,2.1743662E0,-5.714286E-2,2.1601138E0,-1.4195282E0,2.1355484E-1,1.5833335E-1,-1.6236635E0,1.0579E0,-0E0,5.714286E-2,2.167859E0,1.0579E0,1.0579E0,6.666667E-2,6.218256E-1,1.8466378E0,1E-1,2.2222223E-2,6.218256E-1,1.2342317E0,2.2268393E0,9.176471E-2,2.6086956E-2,8.25961E-1,3.3333335E-2,-0E0,6.218256E-1,1.4285715E-1,1.5384616E-2,5.454546E-2,1.17592335E-1,-5.6074765E-3,-4.1134752E-2,4.6575345E-2,-8.387097E-2,-1.3333335E-2,8.571429E-2,2.5E-2,-9.152543E-2,-1.5384616E-2,3.0769233E-2,-4.262295E-2,7.692308E-2,1.5384616E-2,-1.8867925E-2,-0E0,-2.666667E-2,-5.454546E-2,6.666667E-2,-1.818182E-2,-5.693431E-2,1.6000001E-1,9.906542E-2,-4.0000003E-2,1.8471824E-1,1.3777779E-1,6.0000002E-2,1.4333333E-1,1.1460674E-1,3.3333335E-2,8.0000006E-2,-5E-2,1.1666667E-1,4.0000003E-2,1.3681965E-1,2.857143E-2,-1.818182E-2,5.8823533E-2,-5.1428575E-2,4.0000003E-2,1.818182E-2,-1E-1,-0E0,2.2222223E-2,2.2222223E-2,-5.8823533E-2,2.2222223E-2,-0E0,1.5787902E-1,9.756098E-2,1.20000005E-1,3.529412E-2,1.03999995E-1,4.0000003E-2],"split_indices":[27,26,2,28,14,0,0,29,0,0,0,1,0,0,0,0,12,12,0,25,2,25,25,0,0,15,0,14,1,22,2,7,1,21,0,22,1,14,0,0,0,13,0,0,0,24,2,0,0,3,0,22,0,23,2,0,1,23,1,0,0,0,0,0,0,11,0,0,0,0,0,21,2,0,0,1,0,0,0,5,0,25,0,22,2,0,0,0,0,0,0,24,0,0,0,0,0,0,0,15,0,1,1,0,0,0,0,0,0,23,2,0,0,1,0,0,0,0,0,0,1,0,0,0,0,6,0,19,0,20,0,0,0,0,1,0,0,21,1,1,0,0,0,0,0,0,0,25,0,0,0,0,0,0,0,0,0,0,0,0,0,0,0,0,0,0,0,0,0,0,0,0,0,0,0,0,0,0,0,0,0,0,0,0,0,0,0,0,0,0,0,0,0,0,0,0,0,0,0,0,0,0,0,0,0,0,0,0,0,0,0],"split_type":[0,0,0,0,0,0,0,0,0,0,0,0,0,0,0,0,0,0,0,0,0,0,0,0,0,0,0,0,0,0,0,0,0,0,0,0,0,0,0,0,0,0,0,0,0,0,0,0,0,0,0,0,0,0,0,0,0,0,0,0,0,0,0,0,0,0,0,0,0,0,0,0,0,0,0,0,0,0,0,0,0,0,0,0,0,0,0,0,0,0,0,0,0,0,0,0,0,0,0,0,0,0,0,0,0,0,0,0,0,0,0,0,0,0,0,0,0,0,0,0,0,0,0,0,0,0,0,0,0,0,0,0,0,0,0,0,0,0,0,0,0,0,0,0,0,0,0,0,0,0,0,0,0,0,0,0,0,0,0,0,0,0,0,0,0,0,0,0,0,0,0,0,0,0,0,0,0,0,0,0,0,0,0,0,0,0,0,0,0,0,0,0,0,0,0,0,0,0,0,0,0,0,0,0,0,0,0,0,0,0,0],"sum_hessian":[5.24725E3,3.82475E3,1.4225E3,3.039E3,7.8575E2,9.65E2,4.575E2,2.34675E3,6.9225E2,7.46E2,3.975E1,3.9025E2,5.7475E2,1.3625E3,9.8425E2,3.4025E2,5E1,4.54E2,1.2075E2,1.177E3,1.855E2,6.8775E2,2.965E2,5E0,3.3525E2,4.8E1,2E0,4.3375E2,2.025E1,1.122E3,5.5E1,1.2025E2,6.525E1,6.56E2,3.175E1,2.835E2,1.3E1,4.6E1,2E0,1E0,1E0,4.1325E2,2.05E1,1.725E1,3E0,1.07025E3,5.175E1,3.825E1,1.675E1,1.1475E2,5.5E0,6.075E1,4.5E0,6.225E2,3.35E1,3E0,2.875E1,2.7125E2,1.225E1,1.025E1,2.75E0,4.375E1,2.25E0,1E0,1E0,3.93E2,2.025E1,6.25E0,1.425E1,6E0,1.125E1,1.01675E3,5.35E1,3.575E1,1.6E1,1.525E1,2.3E1,1.3E1,3.75E0,1.1E2,4.75E0,5.775E1,3E0,5.8825E2,3.425E1,2.225E1,1.125E1,1.25E0,1.75E0,2.525E1,3.5E0,2.595E2,1.175E1,9E0,3.25E0,8.75E0,1.5E0,1E0,1.75E0,3.735E2,1.95E1,6E0,1.425E1,3.75E0,2.5E0,1.025E1,4E0,3.75E0,2.25E0,9.6525E2,5.15E1,3.6E1,1.75E1,1.6E1,1.975E1,1.425E1,1.75E0,1.35E1,1.75E0,1.475E1,8.25E0,3E0,1E1,2.25E0,1.5E0,1.0575E2,4.25E0,5.525E1,2.5E0,5.5525E2,3.3E1,2.325E1,1.1E1,2.5E0,1.975E1,1E0,2.5E0,2.4625E2,1.325E1,1.05E1,1.25E0,6.75E0,2.25E0,2E0,1.25E0,4.5E0,4.25E0,3.5325E2,2.025E1,4.75E0,1.475E1,5E0,1E0,1.175E1,2.5E0,2.25E0,1.75E0,9.1275E2,5.25E1,3.425E1,1.725E1,1.45E1,2.15E1,2.5E0,1.5E1,1.375E1,2.25E0,5.5E0,1.425E1,2.25E0,1.2E1,1.225E1,2.5E0,6.5E0,1.75E0,1.25E0,1.75E0,1.0175E2,4E0,5.25E1,2.75E0,5.225E2,3.275E1,4E0,2.9E1,2.125E1,2E0,1.5E0,1E0,1.7E1,2.75E0,2.3325E2,1.3E1,1E1,3.25E0,7.75E0,2.75E0,1.75E0,5E0,1E0,1.25E0,1.25E0,3.25E0,1.25E0,3E0,3.3375E2,1.95E1,1.15E1,3.25E0,5.25E0,6.5E0],"tree_param":{"num_deleted":"0","num_feature":"30","num_nodes":"211","size_leaf_vector":"0"}},{"base_weights":[1.3474935E0,1.2570598E0,1.5900576E0,1.1426592E0,1.6990409E0,1.4819181E0,1.815081E0,9.8494774E-1,1.6773819E0,1.6688447E0,1.3526318E0,6.9340414E-1,1.3889059E0,1.5462282E0,1.7108759E0,1.7082267E0,1.3732015E0,1.2534127E0,1.7136174E0,7.877705E-1,9.4198264E-2,1.5672563E0,9.728368E-1,1.6447034E0,1.3180861E0,9.1864675E-1,1.7172865E0,1.4100673E0,3.1673613E-1,1.2855961E0,5.3845E-1,8.402031E-1,-2.7602562E-1,-1.6242296E-1,5.6270504E-1,1.588367E0,1.0973376E0,1.0239726E0,-1.3248424E-1,1.4737405E0,7.379884E-1,1.4500897E0,3.1673613E-1,1.3184285E0,5.958262E-1,3.221703E-1,1.3935677E0,8.905096E-1,-1.9516501E-1,-5.6882024E-1,3.865578E-1,-2.4394196E-1,1.5245551E0,6.930962E-1,-1.0041809E0,1.6094247E0,1.1630088E0,2.3721968E-1,1.1763828E0,1.074915E0,-9.731049E-2,-2.8854108E-1,3.713549E-1,1.5089188E0,5.469683E-1,1.4920363E0,4.2974985E-1,1.3477451E0,7.1498394E-1,1.9058862E-1,7.49624E-1,-1.336885E-1,5.565145E-1,9.4540894E-1,-1.484773E-1,-4.567746E-1,3.8154888E-1,-1.036825E0,-2.2920552E-1,5.227469E-1,-9.6070945E-2,-3.3855563E-1,1.4156002E0,7.601064E-1,-4.6272472E-1,1.632755E0,1.1751981E0,9.202533E-1,1.5299323E0,6.3003206E-1,-1.7025717E-1,1.2627932E0,4.1289425E-1,1.1285642E0,-1.0161389E-1,-4.565844E-1,7.709075E-1,-1.3998649E-1,-7.5274736E-1,-2.102053E-1,7.464161E-1,1.5481164E0,5.469683E-1,1.5205353E0,6.588395E-1,1.3741722E0,8.008579E-1,2.619588E-1,8.7631637E-1,2.9091817E-1,-0E0,5.7215744E-1,1.1409292E0,9.6955135E-2,-4.2974985E-1,1.0015408E0,-1.02801114E-1,-3.921159E-1,3.4666312E-1,-7.4878937E-1,-1.9582915E-1,2.7170435E-1,8.523987E-1,-1.1299934E0,-1.7025717E-1,-8.838881E-2,-3.007311E-1,2.3721968E-1,5.7906455E-1,-4.2974985E-1,3.7609342E-1,-4.2240757E-1,1.6249222E0,8.270322E-1,-5.3093296E-1,1.6543162E0,1.2015558E0,9.9258846E-1,1.4467741E0,2.6595914E-1,9.8635864E-1,-0E0,5.309328E-1,1.1873013E0,3.4443334E-2,-2.3591037E-1,6.3003206E-1,-6.503798E-1,1.453064E-1,9.349445E-1,2.0989144E-1,-3.3411735E-1,8.994994E-2,1.55222E0,6.588395E-1,1.4029267E0,8.319287E-1,2.3935421E-1,9.5538956E-1,3.0562872E-1,-0E0,6.828217E-1,1.33154E0,1.0164094E0,1.9534142E-1,1.0622545E0,-5.0572366E-2,-3.7153786E-1,4.2195427E-1,-7.615471E-1,-1.2059813E-1,2.3619016E-1,8.9327145E-1,-8.316146E-1,-1.4320143E-1,2.8171533E-1,-3.8657162E-1,7.1673584E-1,1.3965276E-1,-1.9064614E-1,1.669185E-1,-1.9714661E-1,-3.4941664E-1,6.3003206E-1,-1.7025717E-1,-5.1567656E-1,1.4961702E0,8.956728E-1,-3.7077928E-1,-1.9057135E-1,-6.352173E-1,1.6787425E0,1.2293357E0,1.3493818E0,5.9323233E-1,1.0399855E0,3.1117067E-1,1.0313271E0,1.5777844E-1,1.2379236E0,2.592346E-1,-1.9424419E-1,5.326441E-1,-4.6901923E-1,3.7077928E-1,1.702572E-1,-9.186466E-1,-0E0,2.0989144E-1,2.0989144E-1,-5.4362494E-1,2.0989144E-1,-0E0,1.5876561E0,6.588395E-1,1.4318682E0,9.003978E-1,5.42621E-1,9.162108E-1,1.0933448E0,3.2603198E-1,9.5488364E-1,3.6546457E-1,9.901032E-2,3.6744466E-1],"categories":[],"categories_nodes":[],"categories_segments":[],"categories_sizes":[],"default_left":[true,true,true,true,false,true,false,true,true,true,true,true,true,true,false,true,true,true,false,true,true,true,true,false,true,false,false,true,false,true,true,true,true,true,true,true,true,true,true,true,false,true,false,true,true,true,false,true,true,true,true,true,false,true,false,true,true,true,true,true,true,true,true,true,false,true,false,true,true,true,true,true,false,true,true,true,true,true,true,true,true,true,false,true,false,true,true,true,false,false,false,false,true,true,true,true,true,true,false,false,false,false,false,true,false,true,true,true,true,false,false,true,false,false,false,true,true,true,true,true,true,true,false,false,false,true,true,true,false,false,false,true,false,true,true,true,true,true,false,false,true,false,false,true,true,true,false,true,true,false,false,true,true,true,false,true,true,false,true,false,false,true,false,false,true,false,false,false,false,false,false,false,false,false,false,false,false,false,false,false,false,false,false,false,false,false,false,false,false,false,false,false,false,false,false,false,false,false,false,false,false,false,false,false,false,false,false,false,false,false,false,false,false,false,false,false,false,false,false,false,false,false,false,false,false],"id":1,"left_children":[1,3,5,7,-1,9,-1,11,13,15,17,19,21,23,-1,25,27,29,-1,31,33,35,37,-1,39,-1,-1,41,-1,43,45,47,49,51,53,55,57,59,61,63,-1,65,-1,67,69,71,-1,73,75,77,79,81,-1,83,-1,85,87,89,91,93,95,97,99,101,-1,103,-1,105,107,109,111,113,-1,115,117,119,121,123,125,127,129,131,-1,133,-1,135,137,139,-1,-1,-1,-1,141,143,145,147,149,151,-1,-1,-1,-1,-1,153,-1,155,157,159,161,-1,-1,163,-1,-1,-1,165,167,169,171,173,175,177,-1,-1,-1,179,181,183,-1,-1,-1,185,-1,187,189,191,193,195,-1,-1,197,-1,-1,199,201,203,-1,205,207,-1,-1,209,211,213,-1,215,217,-1,219,-1,-1,221,-1,-1,223,-1,-1,-1,-1,-1,-1,-1,-1,-1,-1,-1,-1,-1,-1,-1,-1,-1,-1,-1,-1,-1,-1,-1,-1,-1,-1,-1,-1,-1,-1,-1,-1,-1,-1,-1,-1,-1,-1,-1,-1,-1,-1,-1,-1,-1,-1,-1,-1,-1,-1,-1,-1,-1,-1,-1,-1,-1,-1,-1,-1],"loss_changes":[1.12384766E2,1.9035498E2,3.1677979E1,2.533833E2,0E0,2.0927734E1,0E0,2.743645E2,3.7402344E-1,2.1713867E0,1.8353394E1,7.6817444E1,7.112134E1,1.2070923E0,0E0,8.4210205E-1,1.5281754E0,9.724609E0,0E0,6.575281E1,2.2472311E1,5.038574E0,1.6886932E1,0E0,3.4567566E0,0E0,0E0,1.6718903E0,0E0,9.009033E0,3.4758086E0,5.8496765E1,1.1070541E1,1.7018751E1,1.4201374E1,3.9681396E0,1.9390373E0,1.6291534E1,1.2071699E0,4.3564606E-1,0E0,1.3577728E0,0E0,6.3253174E0,1.1955733E0,2.0227437E0,0E0,6.106128E1,8.126194E0,5.991969E0,1.216023E0,1.8745163E1,0E0,5.1240196E0,0E0,4.3481445E0,1.6525917E0,7.472699E-1,1.4331436E0,1.7229462E1,4.47944E0,6.7004496E-1,9.7392935E-1,5.3685E-1,0E0,5.3833008E-2,0E0,4.5620117E0,1.3212976E0,1.3861424E-1,4.045763E-1,5.1957023E-1,0E0,5.9798584E1,6.7065334E0,2.6509185E0,6.4724874E-1,1.115385E0,2.151109E-1,8.756995E-2,9.097114E-1,1.8939243E1,0E0,5.5039444E0,0E0,3.4465332E0,3.0519867E-1,7.4061203E-1,0E0,0E0,0E0,0E0,2.1921909E-1,1.6629913E1,1.4006662E0,1.2594504E0,1.9440603E-1,4.6513277E-1,0E0,0E0,0E0,0E0,0E0,1.300888E-1,0E0,4.6383667E0,1.5463686E0,8.006212E-2,4.3146992E-1,0E0,0E0,1.8908501E0,0E0,0E0,0E0,6.1574585E1,7.557016E0,3.6168714E0,9.057305E-1,7.321482E-1,1.9982716E0,7.958673E-1,0E0,0E0,0E0,2.7981958E-1,9.267211E-3,7.472699E-1,0E0,0E0,0E0,1.9939531E1,0E0,4.9462204E0,3.1037927E-3,3.6875E0,2.0312004E0,4.573288E-1,0E0,0E0,6.082306E-1,0E0,0E0,1.1243835E1,1.726584E0,1.7994072E0,0E0,1.8597867E0,3.0498564E-2,0E0,0E0,7.406211E-1,5.663917E-2,2.1987915E-1,0E0,3.8321533E0,1.9955635E-2,0E0,1.0073261E0,0E0,0E0,7.5042105E-1,0E0,0E0,9.61037E-2,0E0,0E0,0E0,0E0,0E0,0E0,0E0,0E0,0E0,0E0,0E0,0E0,0E0,0E0,0E0,0E0,0E0,0E0,0E0,0E0,0E0,0E0,0E0,0E0,0E0,0E0,0E0,0E0,0E0,0E0,0E0,0E0,0E0,0E0,0E0,0E0,0E0,0E0,0E0,0E0,0E0,0E0,0E0,0E0,0E0,0E0,0E0,0E0,0E0,0E0,0E0,0E0,0E0,0E0,0E0,0E0,0E0,0E0,0E0,0E0],"parents":[2147483647,0,0,1,1,2,2,3,3,5,5,7,7,8,8,9,9,10,10,11,11,12,12,13,13,15,15,16,16,17,17,19,19,20,20,21,21,22,22,24,24,27,27,29,29,30,30,31,31,32,32,33,33,34,34,35,35,36,36,37,37,38,38,39,39,41,41,43,43,44,44,45,45,47,47,48,48,49,49,50,50,51,51,53,53,55,55,56,56,57,57,58,58,59,59,60,60,61,61,62,62,63,63,65,65,67,67,68,68,69,69,70,70,71,71,73,73,74,74,75,75,76,76,77,77,78,78,79,79,80,80,81,81,83,83,85,85,86,86,87,87,92,92,93,93,94,94,95,95,96,96,97,97,103,103,105,105,106,106,107,107,108,108,111,111,115,115,116,116,117,117,118,118,119,119,120,120,121,121,125,125,126,126,127,127,131,131,133,133,134,134,135,135,136,136,137,137,140,140,143,143,144,144,145,145,147,147,148,148,151,151,152,152,153,153,155,155,156,156,158,158,161,161,164,164],"right_children":[2,4,6,8,-1,10,-1,12,14,16,18,20,22,24,-1,26,28,30,-1,32,34,36,38,-1,40,-1,-1,42,-1,44,46,48,50,52,54,56,58,60,62,64,-1,66,-1,68,70,72,-1,74,76,78,80,82,-1,84,-1,86,88,90,92,94,96,98,100,102,-1,104,-1,106,108,110,112,114,-1,116,118,120,122,124,126,128,130,132,-1,134,-1,136,138,140,-1,-1,-1,-1,142,144,146,148,150,152,-1,-1,-1,-1,-1,154,-1,156,158,160,162,-1,-1,164,-1,-1,-1,166,168,170,172,174,176,178,-1,-1,-1,180,182,184,-1,-1,-1,186,-1,188,190,192,194,196,-1,-1,198,-1,-1,200,202,204,-1,206,208,-1,-1,210,212,214,-1,216,218,-1,220,-1,-1,222,-1,-1,224,-1,-1,-1,-1,-1,-1,-1,-1,-1,-1,-1,-1,-1,-1,-1,-1,-1,-1,-1,-1,-1,-1,-1,-1,-1,-1,-1,-1,-1,-1,-1,-1,-1,-1,-1,-1,-1,-1,-1,-1,-1,-1,-1,-1,-1,-1,-1,-1,-1,-1,-1,-1,-1,-1,-1,-1,-1,-1,-1,-1],"split_conditions":[5.149447E-1,9.8159724E-1,3.8428658E-1,1.0876544E0,1.699041E-1,-1.9471592E-1,1.8150811E-1,8.003278E-1,-1.0112574E0,1.0579E0,1.2342317E0,1.2342317E0,4.1769022E-1,-1.2153928E0,1.710876E-1,-2.134002E0,2.2665148E0,2.2665148E0,1.7136174E-1,2.2268393E0,3.8428658E-1,2.2268393E0,2.2268393E0,1.6447034E-1,3.8428658E-1,9.1864675E-2,1.7172866E-1,2.1743662E0,3.1673614E-2,2.1796067E0,1.0579E0,2.167859E0,3.8428658E-1,2.4645753E0,1.0579E0,2.167859E0,-1.4195282E0,2.167859E0,1.0579E0,2.1601138E0,7.379884E-2,2.1796067E0,3.1673614E-2,2.2394016E0,2.1355484E-1,2.1355484E-1,1.3935678E-1,2.219936E0,3.8428658E-1,-3.9885128E-1,6.218256E-1,2.4735818E0,1.5245551E-1,2.167859E0,-1.0041809E-1,2.157547E0,3.8428658E-1,-1.827799E0,1.0579E0,2.157547E0,1.0579E0,1.6425025E0,1.0300963E0,2.167859E0,5.4696828E-2,2.2394016E0,4.2974986E-2,2.1981986E0,2.1355484E-1,9.419464E-3,1.0579E0,9.419464E-3,5.5651452E-2,2.167859E0,3.8428658E-1,-1.9471592E-1,8.25961E-1,1.0579E0,2.1355484E-1,-8.0712205E-1,1.0300963E0,2.8952882E0,1.4156002E-1,2.2268393E0,-4.627247E-2,2.219936E0,3.8428658E-1,-1.4195282E0,1.5299323E-1,6.3003205E-2,-1.7025717E-2,1.2627932E-1,-6.029867E-1,2.219936E0,1.8466378E0,1.6425025E0,1.4383671E0,1.0300963E0,-7.5274736E-2,-2.102053E-2,7.464161E-2,1.5481165E-1,5.4696828E-2,2.157547E0,6.588396E-2,2.1743662E0,9.419464E-3,1.0579E0,1.0579E0,2.9091818E-2,-0E0,6.218256E-1,1.1409292E-1,9.695514E-3,-4.2974986E-2,2.157547E0,3.8428658E-1,-3.9885128E-1,1.0579E0,1.0579E0,2.1355484E-1,-1.2153928E0,8.523987E-2,-1.1299934E-1,-1.7025717E-2,9.419464E-3,6.218256E-1,-1.2153928E0,5.7906456E-2,-4.2974986E-2,3.7609342E-2,3.1989586E0,1.6249222E-1,2.1743662E0,1.4383671E0,2.167859E0,-1.9471592E-1,2.1355484E-1,1.4467742E-1,2.6595915E-2,2.1355484E-1,-0E0,5.309328E-2,2.167859E0,3.8428658E-1,1.0579E0,6.3003205E-2,6.218256E-1,1.8466378E0,9.349445E-2,2.0989144E-2,6.218256E-1,1.2342317E0,2.219936E0,6.588396E-2,2.1928465E0,2.1355484E-1,2.393542E-2,8.25961E-1,3.0562872E-2,-0E0,6.218256E-1,1.33154E-1,1.0164094E-1,1.0300963E0,1.0622545E-1,-5.0572366E-3,-3.7153788E-2,4.219543E-2,-7.615471E-2,-1.2059813E-2,2.3619017E-2,8.932715E-2,-8.3161466E-2,-1.4320143E-2,2.8171534E-2,-3.8657162E-2,7.167359E-2,1.3965276E-2,-1.9064615E-2,1.669185E-2,-1.9714661E-2,-3.4941666E-2,6.3003205E-2,-1.7025717E-2,-5.1567655E-2,1.4961702E-1,8.956728E-2,-3.707793E-2,-1.9057136E-2,-6.3521735E-2,1.6787426E-1,1.2293357E-1,1.3493818E-1,5.9323233E-2,1.0399856E-1,3.1117067E-2,1.0313272E-1,1.5777845E-2,1.23792365E-1,2.592346E-2,-1.942442E-2,5.326441E-2,-4.6901923E-2,3.707793E-2,1.702572E-2,-9.186466E-2,-0E0,2.0989144E-2,2.0989144E-2,-5.4362494E-2,2.0989144E-2,-0E0,1.5876561E-1,6.588396E-2,1.4318682E-1,9.003978E-2,5.42621E-2,9.162108E-2,1.09334484E-1,3.26032E-2,9.548836E-2,3.6546458E-2,9.901032E-3,3.6744468E-2],"split_indices":[27,26,2,28,0,0,0,29,0,1,0,0,0,0,0,0,12,12,0,25,2,25,25,0,2,0,0,15,0,14,1,22,2,3,1,21,0,22,1,20,0,14,0,13,0,0,0,24,2,0,0,7,0,22,0,23,2,0,1,23,1,0,0,21,0,13,0,11,0,0,1,0,0,21,2,0,0,1,0,0,0,4,0,25,0,24,2,0,0,0,0,0,0,24,0,0,0,0,0,0,0,0,0,23,0,15,0,1,1,0,0,0,0,0,0,23,2,0,1,1,0,0,0,0,0,0,0,0,0,0,0,5,0,19,0,22,0,0,0,0,0,0,0,21,2,1,0,0,0,0,0,0,0,24,0,16,0,0,0,0,0,0,0,0,0,0,0,0,0,0,0,0,0,0,0,0,0,0,0,0,0,0,0,0,0,0,0,0,0,0,0,0,0,0,0,0,0,0,0,0,0,0,0,0,0,0,0,0,0,0,0,0,0,0,0,0,0,0,0,0,0,0,0,0,0],"split_type":[0,0,0,0,0,0,0,0,0,0,0,0,0,0,0,0,0,0,0,0,0,0,0,0,0,0,0,0,0,0,0,0,0,0,0,0,0,0,0,0,0,0,0,0,0,0,0,0,0,0,0,0,0,0,0,0,0,0,0,0,0,0,0,0,0,0,0,0,0,0,0,0,0,0,0,0,0,0,0,0,0,0,0,0,0,0,0,0,0,0,0,0,0,0,0,0,0,0,0,0,0,0,0,0,0,0,0,0,0,0,0,0,0,0,0,0,0,0,0,0,0,0,0,0,0,0,0,0,0,0,0,0,0,0,0,0,0,0,0,0,0,0,0,0,0,0,0,0,0,0,0,0,0,0,0,0,0,0,0,0,0,0,0,0,0,0,0,0,0,0,0,0,0,0,0,0,0,0,0,0,0,0,0,0,0,0,0,0,0,0,0,0,0,0,0,0,0,0,0,0,0,0,0,0,0,0,0,0,0,0,0,0,0,0,0,0,0,0,0,0,0,0,0,0,0],"sum_hessian":[5.213451E3,3.8021143E3,1.4113367E3,3.0231897E3,7.789245E2,9.5836163E2,4.52975E2,2.3368108E3,6.863789E2,3.869653E2,5.7139636E2,1.3588337E3,9.779772E2,1.4922359E2,5.3715533E2,3.372615E2,4.9703815E1,4.5171268E2,1.1968368E2,1.173681E3,1.8515271E2,6.8260693E2,2.9537024E2,9.989552E1,4.9328064E1,4.9875207E0,3.32274E2,4.770444E1,1.9993753E0,4.3149133E2,2.0221352E1,1.11875E3,5.4930984E1,1.2004968E2,6.510303E1,6.509822E2,3.1624773E1,2.8237997E2,1.2990249E1,3.7677715E1,1.1650347E1,4.5705067E1,1.9993753E0,4.11016E2,2.0475342E1,1.7238163E1,2.9831882E0,1.0670443E3,5.1705692E1,3.8194435E1,1.6736553E1,1.1533195E2,4.717732E0,6.061639E1,4.486638E0,6.176224E2,3.3359764E1,2.9984674E0,2.8626305E1,2.701479E2,1.2232077E1,1.0244484E1,2.7457645E0,3.569468E1,1.9830377E0,4.3456264E1,2.2488022E0,3.9079684E2,2.021913E1,6.2490654E0,1.4226276E1,5.998698E0,1.1239464E1,1.01357764E3,5.346664E1,3.5713337E1,1.5992353E1,1.5197979E1,2.2996454E1,1.298835E1,3.7482023E0,1.09864365E2,5.4675837E0,5.7618263E1,2.9981258E0,5.835112E2,3.4111164E1,2.2188162E1,1.1171601E1,1.2486122E0,1.7498553E0,2.5128345E1,3.4979603E0,2.5840552E2,1.1742391E1,8.987223E0,3.244854E0,8.7468815E0,1.4976026E0,1.2488594E0,1.4969051E0,3.371164E1,1.9830377E0,4.122137E1,2.2348936E0,3.7133997E2,1.9456879E1,5.9986115E0,1.4220518E1,3.7490652E0,2.5E0,1.148137E1,2.7449064E0,3.749896E0,2.2488022E0,9.621015E2,5.1476166E1,3.597357E1,1.749307E1,1.5971111E1,1.9742228E1,1.4245965E1,1.7463893E0,1.3448123E1,1.7498553E0,8.499244E0,1.44972105E1,2.9984674E0,9.989882E0,2.2488022E0,1.4994001E0,1.061174E2,3.7469625E0,5.5120304E1,2.49796E0,5.5302203E2,3.0489182E1,2.317982E1,1.0931346E1,2.4969778E0,1.9691183E1,1E0,2.4979603E0,2.4515915E2,1.3246364E1,1.0493778E1,1.2486122E0,6.7373767E0,2.2498457E0,1.9950083E0,1.2498457E0,4.497036E0,4.2498455E0,3.8986477E1,2.2348936E0,3.5113254E2,2.020743E1,4.7491918E0,1.4707687E1,4.9986115E0,1E0,1.1733231E1,2.487288E0,4.4902143E0,6.991155E0,9.096019E2,5.2499588E1,3.4235516E1,1.7240648E1,1.4474529E1,2.1499043E1,1.5743343E1,1.7497267E0,1.3721245E1,2.2498667E0,5.4986987E0,1.4243528E1,2.2466748E0,1.19992895E1,6.249444E0,2.2498E0,6.2496667E0,8.247544E0,1.2486122E0,1.7498553E0,1.01895134E2,4.22227E0,5.2371403E1,2.7489004E0,1.24898E0,1.24898E0,5.201741E2,3.2847965E1,2.3548553E1,6.9406266E0,2.1180374E1,1.9994445E0,1.8445427E1,1.2457561E0,2.321618E2,1.2997348E1,9.497065E0,3.749299E0,7.744878E0,2.7489004E0,1.7498554E0,4.987521E0,1E0,1.2498457E0,1.2498457E0,3.2471902E0,1.2498457E0,3E0,3.6751583E1,2.2348936E0,3.3026288E2,2.0869682E1,6.2368608E0,1.3970569E1,1.1458699E1,3.2489882E0,5.2358294E0,6.4974008E0,5.4922705E0,1.4988848E0],"tree_param":{"num_deleted":"0","num_feature":"30","num_nodes":"225","size_leaf_vector":"0"}},{"base_weights":[1.2356306E0,1.1508635E0,1.4641714E0,1.044266E0,1.5665594E0,1.3616233E0,1.6793233E0,8.9783496E-1,1.5463572E0,1.5790714E0,1.2990496E0,1.5391456E0,1.239706E0,6.2909466E-1,1.2738324E0,1.424281E0,1.5776005E0,1.5759661E0,1.2647069E0,1.1466937E0,1.5816139E0,5.8299726E-1,1.7619846E0,1.4254742E0,8.4161323E-1,1.5158271E0,1.2130572E0,1.6678864E0,1.5153393E0,8.4705806E-1,1.5844562E0,1.078737E0,1.6371408E0,1.1763444E0,4.9416918E-1,8.035103E-1,3.2714242E-1,1.4465843E0,9.5949835E-1,8.885713E-1,-1.3362272E-1,1.358879E0,6.7532825E-1,1.580959E0,1.3538897E0,1.2318803E0,5.049001E-1,1.2063859E0,5.515013E-1,2.9171583E-1,1.3046836E0,6.2594837E-1,1.1805505E0,2.7443582E-1,1.7373158E0,1.4691074E0,1.0069488E0,1.0051566E0,-1.450843E-2,9.330246E-1,-1.31725E-1,-3.461012E-1,5.1254344E-1,1.3909732E0,5.1267123E-1,7.633486E-1,1.4139831E0,1.2749279E0,1.7292953E-1,1.2331619E0,6.601752E-1,1.7560823E-1,6.9472647E-1,-1.2514691E-1,5.066171E-1,6.939282E-1,-6.5189517E-1,1.2161027E0,3.6756322E-1,2.2049052E-1,1.7388293E0,1.4927171E0,1.0261916E0,1.0773861E0,-3.765827E-1,2.2526222E-1,1.0771594E0,9.7971034E-1,-1.345056E-3,-5.604329E-1,8.450503E-1,-1.9867331E-1,-7.0957786E-1,1.4267855E0,5.1267123E-1,4.063255E-1,1.2907566E0,1.4374886E0,6.3023233E-1,1.3199631E0,1.9913544E-1,1.2575302E0,7.332117E-1,2.4026471E-1,8.1055945E-1,2.6810077E-1,-0E0,5.284939E-1,1.0637674E0,8.9306235E-2,-4.0042436E-1,7.5992095E-1,-5.4299563E-1,-9.4960135E-1,-7.981414E-2,1.2572538E0,4.056512E-1,2.0540714E-2,5.9065944E-1,1.511049E-1,1.4612802E0,1.5182143E0,1.0310478E0,8.030629E-1,1.3672721E0,9.061569E-1,1.3353523E0,5.9611684E-1,-1.5944707E-1,1.1560879E0,3.8391078E-1,1.0282633E0,-1.5323109E-2,-3.6655992E-1,9.0002674E-1,-8.4705794E-1,1.3725366E-1,1.0903496E0,1.982711E-1,-5.0300294E-1,8.496074E-2,1.460815E0,7.822182E-1,1.284205E0,7.5966406E-1,2.1966888E-1,8.754329E-1,2.803429E-1,-0E0,6.27243E-1,1.2494466E0,9.391446E-1,1.8173862E-1,8.313911E-1,-5.423282E-1,-8.932731E-1,1.2059368E-1,-1.0350469E0,-1.5944707E-1,-1.7425415E-1,1.5535277E-1,1.2955424E0,4.9205616E-1,7.8078866E-1,2.2000411E-1,6.690928E-1,-6.8633044E-1,8.03244E-2,1.5658906E0,1.5080103E0,2.1719909E-1,1.5445368E0,1.0439985E0,1.1081997E0,-1.7472023E-1,8.728886E-1,8.638174E-2,9.4885546E-1,2.905823E-1,-0E0,4.938376E-1,1.0719249E0,2.3584098E-1,-2.7829513E-1,7.166317E-1,-7.3763436E-1,3.7435985E-1,-0E0,1.982711E-1,-5.9255236E-1,-1.5969174E-1,1.982711E-1,-0E0,1.3127732E0,7.580537E-1,4.97305E-1,8.358404E-1,1.0019469E0,3.013051E-1,8.8029146E-1,3.3411574E-1,9.066227E-2,3.4569559E-1],"categories":[],"categories_nodes":[],"categories_segments":[],"categories_sizes":[],"default_left":[true,true,true,true,true,true,false,true,true,false,false,true,true,true,true,true,true,true,true,true,false,true,false,true,true,false,true,false,true,false,false,true,false,true,true,true,true,true,true,true,true,true,false,false,true,true,false,true,true,true,false,true,true,true,false,true,true,true,false,true,true,true,false,true,false,true,true,true,false,true,true,true,true,true,false,true,true,true,true,true,false,true,true,true,false,true,true,true,true,true,true,true,false,false,false,false,false,true,false,false,false,true,true,true,true,false,false,true,false,false,false,true,true,true,true,true,true,true,false,true,true,true,true,true,false,true,false,false,false,false,true,true,true,true,false,false,true,false,false,true,true,false,false,true,true,false,true,false,false,true,false,false,true,false,false,false,false,false,false,false,false,false,false,false,false,false,false,false,false,false,false,false,false,false,false,false,false,false,false,false,false,false,false,false,false,false,false,false,false,false,false,false,false,false,false,false,false,false,false,false,false,false,false],"id":2,"left_children":[1,3,5,7,9,11,-1,13,15,-1,-1,17,19,21,23,25,27,29,31,33,-1,35,-1,37,39,-1,41,-1,43,-1,-1,45,-1,47,49,51,53,55,57,59,61,63,-1,-1,65,67,-1,69,71,73,-1,75,77,79,-1,81,83,85,-1,87,89,91,-1,93,-1,95,97,99,-1,101,103,105,107,109,-1,111,113,115,117,119,-1,121,123,125,-1,127,129,131,133,135,137,139,-1,-1,-1,-1,-1,141,-1,-1,-1,143,145,147,149,-1,-1,151,-1,-1,-1,153,155,157,159,161,163,165,-1,167,169,171,173,175,-1,177,-1,-1,-1,-1,179,181,183,185,-1,-1,187,-1,-1,189,191,-1,-1,193,195,-1,197,-1,-1,199,-1,-1,201,-1,-1,-1,-1,-1,-1,-1,-1,-1,-1,-1,-1,-1,-1,-1,-1,-1,-1,-1,-1,-1,-1,-1,-1,-1,-1,-1,-1,-1,-1,-1,-1,-1,-1,-1,-1,-1,-1,-1,-1,-1,-1,-1,-1,-1,-1,-1,-1,-1,-1],"loss_changes":[9.764209E1,1.6429736E2,2.8238037E1,2.1795459E2,5E-1,1.8484497E1,0E0,2.3283057E2,3.170166E-1,0E0,0E0,1.8415527E0,1.6113953E1,6.949335E1,6.190271E1,1.0090942E0,4.2919922E-1,7.0336914E-1,1.6938858E0,8.063477E0,0E0,7.302945E1,0E0,5.6088867E0,1.1681808E1,0E0,2.9666977E0,0E0,1.2733154E0,0E0,0E0,2.563614E0,0E0,7.343689E0,3.0890965E0,4.5926056E1,4.4343697E1,5.2388916E0,1.5175648E0,1.1054794E1,1.8892779E0,3.184204E-1,0E0,0E0,2.4722748E0,1.0522118E0,0E0,5.1273804E0,1.0308986E0,1.6944478E0,0E0,4.1801315E1,5.9706116E0,4.5631695E1,0E0,5.19458E0,3.937809E0,1.571003E0,0E0,1.0081757E1,5.054376E0,3.9382136E-1,0E0,4.0119934E-1,0E0,1.625287E0,7.458801E-1,1.029335E0,0E0,3.7819824E0,1.1399765E0,1.17701754E-1,3.6830568E-1,4.4871315E-1,0E0,3.7344437E1,4.1069336E0,6.570343E0,8.190428E-1,4.8244415E1,0E0,5.59729E0,1.622921E0,3.2479858E-1,0E0,6.6490906E-1,1.1595459E0,1.0648819E1,4.2787504E0,1.7567885E0,3.764634E-1,7.754936E-1,0E0,0E0,0E0,0E0,0E0,1.7601013E-1,0E0,0E0,0E0,3.8952637E0,1.2935095E0,6.735653E-2,4.345131E-1,0E0,0E0,1.6013954E0,0E0,0E0,0E0,4.0466385E1,5.5699244E0,9.193554E-1,2.3800793E-1,5.267975E0,6.454861E-1,2.8601725E0,0E0,5.3372902E1,1.3989563E0,5.55896E0,3.4461632E0,1.1274595E0,0E0,3.5499763E-1,0E0,0E0,0E0,0E0,1.8958956E-1,7.008255E0,2.3600893E0,2.8185353E0,0E0,0E0,2.7213432E-2,0E0,0E0,3.571403E-2,5.0535776E-2,0E0,0E0,4.2157593E0,6.0224533E-3,0E0,8.3095264E-1,0E0,0E0,6.470628E-1,0E0,0E0,8.792889E-2,0E0,0E0,0E0,0E0,0E0,0E0,0E0,0E0,0E0,0E0,0E0,0E0,0E0,0E0,0E0,0E0,0E0,0E0,0E0,0E0,0E0,0E0,0E0,0E0,0E0,0E0,0E0,0E0,0E0,0E0,0E0,0E0,0E0,0E0,0E0,0E0,0E0,0E0,0E0,0E0,0E0,0E0,0E0,0E0,0E0,0E0,0E0,0E0,0E0,0E0],"parents":[2147483647,0,0,1,1,2,2,3,3,4,4,5,5,7,7,8,8,11,11,12,12,13,13,14,14,15,15,16,16,17,17,18,18,19,19,21,21,23,23,24,24,26,26,28,28,31,31,33,33,34,34,35,35,36,36,37,37,38,38,39,39,40,40,41,41,44,44,45,45,47,47,48,48,49,49,51,51,52,52,53,53,55,55,56,56,57,57,59,59,60,60,61,61,63,63,65,65,66,66,67,67,69,69,70,70,71,71,72,72,73,73,75,75,76,76,77,77,78,78,79,79,81,81,82,82,83,83,85,85,86,86,87,87,88,88,89,89,90,90,91,91,97,97,101,101,102,102,103,103,104,104,107,107,111,111,112,112,113,113,114,114,115,115,116,116,117,117,119,119,120,120,121,121,122,122,123,123,125,125,130,130,131,131,132,132,133,133,136,136,139,139,140,140,143,143,144,144,146,146,149,149,152,152],"right_children":[2,4,6,8,10,12,-1,14,16,-1,-1,18,20,22,24,26,28,30,32,34,-1,36,-1,38,40,-1,42,-1,44,-1,-1,46,-1,48,50,52,54,56,58,60,62,64,-1,-1,66,68,-1,70,72,74,-1,76,78,80,-1,82,84,86,-1,88,90,92,-1,94,-1,96,98,100,-1,102,104,106,108,110,-1,112,114,116,118,120,-1,122,124,126,-1,128,130,132,134,136,138,140,-1,-1,-1,-1,-1,142,-1,-1,-1,144,146,148,150,-1,-1,152,-1,-1,-1,154,156,158,160,162,164,166,-1,168,170,172,174,176,-1,178,-1,-1,-1,-1,180,182,184,186,-1,-1,188,-1,-1,190,192,-1,-1,194,196,-1,198,-1,-1,200,-1,-1,202,-1,-1,-1,-1,-1,-1,-1,-1,-1,-1,-1,-1,-1,-1,-1,-1,-1,-1,-1,-1,-1,-1,-1,-1,-1,-1,-1,-1,-1,-1,-1,-1,-1,-1,-1,-1,-1,-1,-1,-1,-1,-1,-1,-1,-1,-1,-1,-1,-1,-1],"split_conditions":[5.149447E-1,9.8159724E-1,3.8428658E-1,1.0876544E0,2.1796067E0,-1.9471592E-1,1.6793233E-1,8.003278E-1,-1.0112574E0,1.5790714E-1,1.2990497E-1,1.0579E0,1.2342317E0,2.4645753E0,6.218256E-1,-1.2153928E0,-1.9471592E-1,-2.134002E0,-3.9885128E-1,2.2665148E0,1.5816139E-1,2.1355484E-1,1.7619847E-1,2.2268393E0,2.2268393E0,1.515827E-1,3.8428658E-1,1.6678864E-1,3.8428658E-1,8.470581E-2,1.5844563E-1,-6.029867E-1,1.6371408E-1,2.1796067E0,1.0579E0,3.8428658E-1,2.9601758E0,2.157547E0,4.1769022E-1,2.167859E0,1.0579E0,2.1601138E0,6.753283E-2,1.580959E-1,9.419464E-3,2.1796067E0,5.049001E-2,2.2394016E0,2.1355484E-1,2.1355484E-1,1.3046835E-1,2.2268393E0,2.167859E0,2.8952882E0,1.7373158E-1,2.167859E0,4.1769022E-1,-1.4195282E0,-1.4508431E-3,2.219936E0,1.0579E0,1.6425025E0,5.1254343E-2,2.167859E0,5.1267125E-2,1.0579E0,2.1928465E0,2.1743662E0,1.7292952E-2,2.1981986E0,2.1355484E-1,9.419464E-3,1.0579E0,9.419464E-3,5.0661713E-2,2.157547E0,-3.9885128E-1,2.219936E0,-6.029867E-1,2.2365947E0,1.7388293E-1,2.1601138E0,3.8428658E-1,3.8428658E-1,-3.765827E-2,-1.827799E0,1.0579E0,2.157547E0,1.0579E0,1.6425025E0,1.4383671E0,1.0300963E0,-7.095779E-2,1.4267854E-1,5.1267125E-2,4.063255E-2,1.2907566E-1,2.1601138E0,6.302323E-2,1.3199632E-1,1.9913545E-2,2.1743662E0,9.419464E-3,1.0579E0,1.0579E0,2.6810078E-2,-0E0,6.218256E-1,1.06376745E-1,8.9306235E-3,-4.0042438E-2,2.1601138E0,-3.9885128E-1,1.0579E0,9.419464E-3,2.2268393E0,-1.2153928E0,-1.2153928E0,5.9065945E-2,2.4735818E0,1.8466378E0,2.219936E0,4.1769022E-1,2.1355484E-1,1.3672721E-1,2.1355484E-1,1.3353524E-1,5.9611686E-2,-1.5944708E-2,1.1560879E-1,-6.029867E-1,2.167859E0,1.0579E0,3.8428658E-1,9.000268E-2,-8.470579E-2,1.8466378E0,1.09034956E-1,1.982711E-2,8.25961E-1,1.2342317E0,1.4608149E-1,7.822182E-2,2.2268393E0,2.1355484E-1,2.1966888E-2,8.25961E-1,2.803429E-2,-0E0,6.218256E-1,1.24944665E-1,9.3914464E-2,1.0300963E0,8.3139114E-2,-5.4232817E-2,-8.932731E-2,1.2059368E-2,-1.03504695E-1,-1.5944708E-2,-1.7425416E-2,1.5535277E-2,1.2955424E-1,4.9205616E-2,7.8078866E-2,2.2000412E-2,6.6909276E-2,-6.863304E-2,8.03244E-3,1.5658906E-1,1.5080103E-1,2.1719908E-2,1.5445368E-1,1.0439985E-1,1.1081997E-1,-1.7472023E-2,8.7288864E-2,8.638174E-3,9.488555E-2,2.9058231E-2,-0E0,4.938376E-2,1.07192494E-1,2.3584098E-2,-2.7829513E-2,7.166317E-2,-7.376344E-2,3.7435986E-2,-0E0,1.982711E-2,-5.925524E-2,-1.5969174E-2,1.982711E-2,-0E0,1.3127732E-1,7.580537E-2,4.9730502E-2,8.358404E-2,1.0019469E-1,3.013051E-2,8.8029146E-2,3.3411574E-2,9.066227E-3,3.4569558E-2],"split_indices":[27,26,2,28,14,0,0,29,0,0,0,1,0,3,0,0,0,0,0,12,0,0,0,25,25,0,2,0,2,0,0,0,0,14,1,2,6,23,0,22,1,20,0,0,0,14,0,13,0,0,0,25,22,4,0,21,0,0,0,24,1,0,0,21,0,1,16,15,0,11,0,0,1,0,0,23,0,24,0,8,0,20,2,2,0,0,1,23,1,0,0,0,0,0,0,0,0,20,0,0,0,15,0,1,1,0,0,0,0,0,0,20,0,1,0,25,0,0,0,7,0,24,0,0,0,0,0,0,0,0,0,21,1,2,0,0,0,0,0,0,0,0,0,25,0,0,0,0,0,0,0,0,0,0,0,0,0,0,0,0,0,0,0,0,0,0,0,0,0,0,0,0,0,0,0,0,0,0,0,0,0,0,0,0,0,0,0,0,0,0,0,0,0,0,0,0,0,0,0,0,0,0,0],"split_type":[0,0,0,0,0,0,0,0,0,0,0,0,0,0,0,0,0,0,0,0,0,0,0,0,0,0,0,0,0,0,0,0,0,0,0,0,0,0,0,0,0,0,0,0,0,0,0,0,0,0,0,0,0,0,0,0,0,0,0,0,0,0,0,0,0,0,0,0,0,0,0,0,0,0,0,0,0,0,0,0,0,0,0,0,0,0,0,0,0,0,0,0,0,0,0,0,0,0,0,0,0,0,0,0,0,0,0,0,0,0,0,0,0,0,0,0,0,0,0,0,0,0,0,0,0,0,0,0,0,0,0,0,0,0,0,0,0,0,0,0,0,0,0,0,0,0,0,0,0,0,0,0,0,0,0,0,0,0,0,0,0,0,0,0,0,0,0,0,0,0,0,0,0,0,0,0,0,0,0,0,0,0,0,0,0,0,0,0,0,0,0,0,0,0,0,0,0,0,0,0,0,0,0],"sum_hessian":[5.126146E3,3.743644E3,1.382502E3,2.9823794E3,7.6126447E2,9.4121716E2,4.4128482E2,2.3111414E3,6.712382E2,7.225659E2,3.8698593E1,3.7848514E2,5.62732E2,1.3493677E3,9.6177356E2,1.4627809E2,5.249601E2,3.295306E2,4.8954544E1,4.4580847E2,1.1692353E2,1.298064E3,5.130374E1,7.1027826E2,2.5149529E2,9.774032E1,4.8537777E1,2.0373393E2,3.2122617E2,4.954266E0,3.2457632E2,3.524959E1,1.3704954E1,4.2566357E2,2.0144894E1,6.960342E2,6.020298E2,6.7748175E2,3.2796513E1,2.4002675E2,1.1468544E1,3.6981915E1,1.1555862E1,2.221451E2,9.908107E1,2.6918852E1,8.330739E0,4.052491E2,2.0414461E1,1.7206823E1,2.9380705E0,4.749997E2,2.2103447E2,5.8149066E2,2.0539175E1,6.4223755E2,3.5244225E1,3.1297411E1,1.4991018E0,2.300876E2,9.939146E0,8.980024E0,2.4885192E0,3.50103E1,1.9716138E0,1.0416837E1,8.866424E1,2.5671331E1,1.2475208E0,3.8511264E2,2.0136484E1,6.246551E0,1.416791E1,5.9951544E0,1.1211669E1,4.5144052E2,2.3559181E1,2.1129846E2,9.73601E0,5.619404E2,1.955018E1,6.0748517E2,3.4752354E1,3.374738E1,1.4968448E0,2.9942179E0,2.8303194E1,2.1909215E2,1.0995457E1,7.2036824E0,2.7354639E0,7.48903E0,1.4909948E0,3.3038685E1,1.9716138E0,7.26756E0,3.149276E0,8.5272705E1,3.3915281E0,2.4421999E1,1.2493328E0,3.6576923E2,1.9343393E1,5.9948997E0,1.4141584E1,3.746551E0,2.5E0,1.1444754E1,2.7231567E0,3.7496166E0,2.2455375E0,4.2894116E2,2.2499361E1,1.5061432E1,8.497749E0,2.0056346E2,1.0735001E1,4.2371945E0,5.4988155E0,5.33243E2,2.8697454E1,5.735219E2,3.3963272E1,2.303666E1,1.1715696E1,2.2996058E1,1.0751322E1,1.2447603E0,1.7494577E0,2.4810772E1,3.4924204E0,2.08867E2,1.0225132E1,8.2472105E0,2.7482464E0,4.954266E0,2.2494166E0,1.4860471E0,1.2494167E0,3.2396133E0,4.249417E0,8.115442E1,4.118284E0,3.456695E2,2.009975E1,4.74703E0,1.4596364E1,4.9948997E0,1E0,1.1688601E1,2.452984E0,4.4575024E0,6.987251E0,4.069675E2,2.197366E1,1.4499588E1,7.9997725E0,1.3311975E1,1.7494577E0,6.247752E0,2.2499974E0,1.9034595E2,1.0217508E1,2.4925437E0,8.242456E0,2.2376251E0,1.9995693E0,5.088428E2,2.4400188E1,2.7454079E1,1.2433754E0,5.412231E2,3.2298817E1,3.1996851E1,1.9664215E0,2.0792866E1,2.243792E0,2.0998133E1,1.9979246E0,1E0,2.4924204E0,1.9762537E2,1.1241652E1,7.978471E0,2.2466614E0,5.498056E0,2.749154E0,1E0,1.2494167E0,1.9936081E0,1.246005E0,1.2494167E0,3E0,3.2644934E2,1.9220156E1,6.2167993E0,1.3882951E1,1.1350107E1,3.2462573E0,5.198113E0,6.490488E0,5.4903717E0,1.4968791E0],"tree_param":{"num_deleted":"0","num_feature":"30","num_nodes":"203","size_leaf_vector":"0"}},{"base_weights":[1.1419023E0,1.061014E0,1.3618401E0,9.6000415E-1,1.4608123E0,1.2620392E0,1.5738188E0,8.219317E-1,1.4419155E0,1.4729959E0,1.2031031E0,1.4346865E0,1.144685E0,5.719082E-1,1.1774852E0,1.3241011E0,1.472236E0,1.4704808E0,1.1715491E0,1.0557988E0,1.4764341E0,4.225024E-1,8.7751466E-1,1.3393737E0,8.0872947E-1,1.4116246E0,1.1239444E0,1.559607E0,1.4122292E0,7.833078E-1,1.4787052E0,9.954908E-1,1.5278575E0,1.0835084E0,4.544897E-1,3.6936492E-1,1.6099106E0,1.1041352E0,6.3052315E-1,1.3584461E0,9.253434E-1,8.5243237E-1,-1.15424395E-1,1.2633201E0,6.1902106E-1,1.4748839E0,1.2589016E0,1.1395946E0,4.6303076E-1,1.1114308E0,5.11438E-1,2.643273E-1,1.2291313E0,3.0916163E-1,1.5203481E0,1.1367882E0,3.3694664E-1,6.2017046E-2,7.31923E-1,1.377447E0,9.8438174E-1,2.1405655E-1,9.916085E-1,8.961196E-1,-9.450502E-2,4.256268E-3,-6.699361E-1,1.2933092E0,4.8091507E-1,1.5602056E0,1.3513577E0,7.109997E-1,1.3154013E0,8.8815755E-1,1.4962295E0,1.1363178E0,6.109137E-1,1.6183655E-1,6.4545876E-1,-1.1718162E-1,4.6170437E-1,2.5423196E-1,1.6117369E0,1.6656082E0,1.1920872E0,1.1744162E0,3.7431702E-1,1.8290298E-2,5.4151416E-1,-2.5060989E-2,1.0602111E0,1.272266E0,5.766543E-1,1.3986846E0,9.928174E-1,7.6840043E-1,1.3221428E0,5.64616E-1,-1.4933603E-1,1.0646931E0,3.5721332E-1,9.415938E-1,-7.8307115E-2,-4.0810025E-1,6.663198E-1,-4.155753E-1,2.7090788E-1,1.3268472E0,4.8091507E-1,1.1906606E0,1.5568719E0,3.7320796E-1,1.2184101E0,1.3375227E0,5.872785E-1,1.3539283E0,6.5158373E-1,1.1575464E0,6.2465113E-1,2.2042806E-1,7.518982E-1,2.4714237E-1,-0E0,4.890356E-1,9.960059E-1,8.2263604E-2,-3.733113E-1,3.5442865E-1,-3.9971498E-1,1.2096825E0,4.4850323E-1,7.282082E-1,2.0052381E-1,6.2559915E-1,-6.4064604E-1,-9.9030554E-2,9.902063E-1,1.3249923E0,1.8106286E-1,1.837736E-1,7.0710295E-1,1.4208851E0,9.999118E-1,8.303338E-1,1.2419652E0,1.8542984E-1,8.305001E-1,1.0991309E0,4.2579052E-1,-0E0,4.5973873E-1,9.9233174E-1,2.0851634E-2,-2.0666243E-1,6.1101615E-1,-5.8335626E-1,1.2965812E-1,8.05525E-1,1.8731575E-1,-1.3638048E-2,-5.732449E-1,1.2696873E-2,7.855525E-1,1.3474345E0,4.1680595E-1,1.2259055E0,3.123742E-1,1.3593714E0,7.286112E-1,3.655267E-1,7.305636E-1,1.1826996E0,6.731709E-1,2.6532224E-1,7.600087E-1,2.572308E-1,-0E0,5.7724977E-1,1.1789082E0,8.708373E-1,1.6913594E-1,2.9657984E-1,1.3396343E0,-4.8662364E-1,1.3908002E0,1.2464871E0,5.025967E-1,1.8859893E-1,5.2029496E-1,-2.0289114E-1,3.592621E-1,-1.7287536E-1,9.203467E-1,1.3835915E0,1.8106286E-1,1.0158426E-1,1.0986925E0,1.0610846E0,4.7119457E-1,1.4442993E0,1.0211422E0,3.4022248E-1,1.0772879E0,8.691593E-1,2.7143463E-1,9.0905005E-1,2.3402596E-1,1.0401419E0,1.3895376E-1,-1.7483531E-1,4.4882557E-1,-4.0301958E-1,3.0669412E-1,6.1836902E-2,-7.833078E-1,-0E0,1.8731575E-1,-1.509176E-1,8.025287E-2,1.2502707E0,3.4599984E-1,5.1792127E-1,-5.923298E-2,1.2106661E0,6.9542044E-1,2.0164138E-1,8.050238E-1,7.595833E-1,-4.631117E-1,8.1407535E-1,3.0559775E-1,8.301955E-2,3.2535475E-1],"categories":[],"categories_nodes":[],"categories_segments":[],"categories_sizes":[],"default_left":[true,true,true,true,true,true,false,true,true,false,false,true,true,true,true,true,true,true,true,true,false,true,true,true,true,false,true,false,true,false,false,true,false,true,true,true,false,true,true,true,true,true,true,true,false,true,true,true,false,true,true,true,false,true,true,true,true,true,true,true,true,true,true,true,true,true,false,true,false,false,true,true,true,true,false,true,true,true,true,true,false,true,false,false,false,true,true,true,false,true,false,true,true,true,true,true,false,false,false,true,true,true,true,true,true,true,true,true,false,true,false,false,false,true,false,false,true,true,true,true,true,false,false,true,false,false,false,true,true,true,true,false,true,false,false,true,false,true,false,true,true,true,true,true,false,false,true,false,false,false,false,true,true,true,false,true,true,false,false,false,false,true,false,false,false,true,true,false,false,false,false,true,true,true,false,false,false,true,false,false,true,false,false,false,false,false,false,false,false,false,false,false,false,false,false,false,false,false,false,false,false,false,false,false,false,false,false,false,false,false,false,false,false,false,false,false,false,false,false,false,false,false,false,false,false,false,false,false,false,false,false,false,false],"id":3,"left_children":[1,3,5,7,9,11,-1,13,15,-1,-1,17,19,21,23,25,27,29,31,33,-1,35,37,39,41,-1,43,-1,45,-1,-1,47,-1,49,51,53,-1,55,57,59,61,63,65,67,-1,69,71,73,-1,75,77,79,-1,81,83,85,87,89,91,93,95,97,99,101,103,105,-1,107,-1,-1,109,111,113,115,-1,117,119,121,123,125,-1,127,-1,-1,-1,129,131,133,-1,135,-1,137,139,141,143,145,-1,-1,-1,147,149,151,153,155,157,159,161,163,-1,165,-1,-1,-1,167,-1,-1,169,171,173,175,177,-1,-1,179,-1,-1,-1,181,183,185,187,-1,189,-1,-1,191,-1,193,-1,195,197,199,201,203,-1,-1,205,-1,-1,-1,-1,207,209,211,-1,213,215,-1,-1,-1,-1,217,-1,-1,-1,219,221,-1,-1,-1,-1,223,225,227,-1,-1,-1,229,-1,-1,231,-1,-1,-1,-1,-1,-1,-1,-1,-1,-1,-1,-1,-1,-1,-1,-1,-1,-1,-1,-1,-1,-1,-1,-1,-1,-1,-1,-1,-1,-1,-1,-1,-1,-1,-1,-1,-1,-1,-1,-1,-1,-1,-1,-1,-1,-1,-1,-1,-1,-1,-1,-1],"loss_changes":[8.7612305E1,1.4657959E2,2.6415283E1,1.9365625E2,5.4248047E-1,1.695337E1,0E0,2.0187231E2,3.7548828E-1,0E0,0E0,1.7382812E0,1.4699402E1,6.0798584E1,5.5017334E1,9.2111206E-1,4.642334E-1,6.47583E-1,1.5477829E0,6.8114014E0,0E0,5.630034E1,2.3874146E1,3.8878174E0,1.1779572E1,0E0,2.6281357E0,0E0,1.1417847E0,0E0,0E0,2.2047577E0,0E0,6.1135864E0,2.7734113E0,5.942652E1,0E0,5.3183594E0,1.2197189E1,3.0557861E0,1.2878838E0,1.1514221E1,9.279957E-1,2.46521E-1,0E0,1.6555786E-1,2.079132E0,1.1228828E0,0E0,4.2634583E0,8.944707E-1,1.4216671E0,0E0,5.8453445E1,5.102539E-2,5.811432E0,6.88413E-1,2.9156737E0,1.4379387E1,3.4160156E0,1.4285736E0,5.9231675E-1,9.5682335E-1,1.1780472E1,3.394802E0,1.5073988E0,0E0,3.170395E-1,0E0,0E0,1.3040161E0,1.4785075E0,6.1738586E-1,1.1559248E0,0E0,3.3825989E0,9.9118567E-1,9.999168E-2,3.3966017E-1,3.87778E-1,0E0,5.1943356E1,0E0,0E0,0E0,4.760895E0,5.744649E-1,2.491039E0,0E0,2.4673066E0,0E0,2.0257874E0,7.135151E0,3.4924316E0,3.5422897E-1,6.723919E-1,0E0,0E0,0E0,8.988571E-2,1.642248E-1,1.177478E1,1.2501941E0,1.0076023E0,1.291759E-1,3.2389438E-1,1.0830413E0,5.847931E-2,0E0,1.4096527E0,0E0,0E0,0E0,1.23687744E-1,0E0,0E0,5.3641796E-2,3.6113281E0,6.363692E-1,5.6700885E-2,4.4002914E-1,0E0,0E0,1.3659875E0,0E0,0E0,0E0,3.8704193E1,1.7095058E1,4.4996643E0,1.1061835E-1,0E0,6.64362E-1,0E0,0E0,2.4410884E0,0E0,2.2569351E0,0E0,2.647067E0,8.357609E0,3.4233398E0,1.2996635E0,2.7905273E-1,0E0,0E0,7.4034405E-1,0E0,0E0,0E0,0E0,9.618225E0,1.2684073E0,1.2783836E0,0E0,1.0340464E0,2.4287008E-2,0E0,0E0,0E0,0E0,8.3885804E-2,0E0,0E0,0E0,7.5370026E-1,3.0383363E-1,0E0,0E0,0E0,0E0,3.8265076E0,1.0922794E0,2.6022825E0,0E0,0E0,0E0,5.63334E-1,0E0,0E0,8.0377445E-2,0E0,0E0,0E0,0E0,0E0,0E0,0E0,0E0,0E0,0E0,0E0,0E0,0E0,0E0,0E0,0E0,0E0,0E0,0E0,0E0,0E0,0E0,0E0,0E0,0E0,0E0,0E0,0E0,0E0,0E0,0E0,0E0,0E0,0E0,0E0,0E0,0E0,0E0,0E0,0E0,0E0,0E0,0E0,0E0,0E0,0E0,0E0,0E0,0E0,0E0,0E0,0E0],"parents":[2147483647,0,0,1,1,2,2,3,3,4,4,5,5,7,7,8,8,11,11,12,12,13,13,14,14,15,15,16,16,17,17,18,18,19,19,21,21,22,22,23,23,24,24,26,26,28,28,31,31,33,33,34,34,35,35,37,37,38,38,39,39,40,40,41,41,42,42,43,43,45,45,46,46,47,47,49,49,50,50,51,51,53,53,54,54,55,55,56,56,57,57,58,58,59,59,60,60,61,61,62,62,63,63,64,64,65,65,67,67,70,70,71,71,72,72,73,73,75,75,76,76,77,77,78,78,79,79,81,81,85,85,86,86,87,87,89,89,91,91,92,92,93,93,94,94,95,95,99,99,100,100,101,101,102,102,103,103,104,104,105,105,106,106,107,107,109,109,113,113,116,116,117,117,118,118,119,119,120,120,123,123,127,127,128,128,129,129,130,130,132,132,135,135,137,137,139,139,140,140,141,141,142,142,143,143,146,146,151,151,152,152,153,153,155,155,156,156,161,161,165,165,166,166,171,171,172,172,173,173,177,177,180,180],"right_children":[2,4,6,8,10,12,-1,14,16,-1,-1,18,20,22,24,26,28,30,32,34,-1,36,38,40,42,-1,44,-1,46,-1,-1,48,-1,50,52,54,-1,56,58,60,62,64,66,68,-1,70,72,74,-1,76,78,80,-1,82,84,86,88,90,92,94,96,98,100,102,104,106,-1,108,-1,-1,110,112,114,116,-1,118,120,122,124,126,-1,128,-1,-1,-1,130,132,134,-1,136,-1,138,140,142,144,146,-1,-1,-1,148,150,152,154,156,158,160,162,164,-1,166,-1,-1,-1,168,-1,-1,170,172,174,176,178,-1,-1,180,-1,-1,-1,182,184,186,188,-1,190,-1,-1,192,-1,194,-1,196,198,200,202,204,-1,-1,206,-1,-1,-1,-1,208,210,212,-1,214,216,-1,-1,-1,-1,218,-1,-1,-1,220,222,-1,-1,-1,-1,224,226,228,-1,-1,-1,230,-1,-1,232,-1,-1,-1,-1,-1,-1,-1,-1,-1,-1,-1,-1,-1,-1,-1,-1,-1,-1,-1,-1,-1,-1,-1,-1,-1,-1,-1,-1,-1,-1,-1,-1,-1,-1,-1,-1,-1,-1,-1,-1,-1,-1,-1,-1,-1,-1,-1,-1,-1,-1,-1,-1],"split_conditions":[5.149447E-1,9.8159724E-1,3.8428658E-1,1.0876544E0,2.1796067E0,-1.9471592E-1,1.5738188E-1,8.003278E-1,-1.0112574E0,1.4729959E-1,1.2031031E-1,1.0579E0,1.2342317E0,3.8428658E-1,4.1769022E-1,-1.2153928E0,-1.9471592E-1,-2.134002E0,-3.9885128E-1,2.2665148E0,1.4764342E-1,2.4735818E0,2.1355484E-1,2.2268393E0,2.2268393E0,1.4116246E-1,3.8428658E-1,1.5596071E-1,3.8428658E-1,7.833078E-2,1.4787053E-1,-6.029867E-1,1.5278576E-1,2.1796067E0,1.0579E0,2.2365947E0,1.6099106E-1,2.167859E0,4.1769022E-1,2.167859E0,-1.4195282E0,2.167859E0,1.6425025E0,2.1601138E0,6.1902106E-2,8.25961E-1,9.419464E-3,-8.0712205E-1,4.6303075E-2,2.2394016E0,2.1355484E-1,2.1355484E-1,1.2291314E-1,2.4645753E0,4.1769022E-1,2.219936E0,-6.029867E-1,2.2365947E0,6.218256E-1,2.157547E0,3.8428658E-1,-1.827799E0,1.0579E0,2.157547E0,1.0579E0,8.25961E-1,-6.699362E-2,2.167859E0,4.809151E-2,1.5602057E-1,1.4383671E0,1.0579E0,2.1928465E0,-1.3174605E0,1.4962296E-1,2.219936E0,2.1355484E-1,9.419464E-3,1.0579E0,9.419464E-3,4.617044E-2,1.2342317E0,1.6117369E-1,1.6656081E-1,1.19208716E-1,2.2268393E0,-1.2153928E0,-1.2153928E0,5.4151416E-2,3.1989586E0,1.06021106E-1,2.1743662E0,8.25961E-1,2.167859E0,3.8428658E-1,-1.4195282E0,1.322143E-1,5.6461602E-2,-1.4933603E-2,2.1355484E-1,-6.029867E-1,2.219936E0,1.8466378E0,1.6425025E0,1.4383671E0,6.218256E-1,1.0579E0,2.2665148E0,4.809151E-2,2.1588297E0,1.556872E-1,3.7320796E-2,1.2184101E-1,2.1601138E0,5.872785E-2,1.3539283E-1,-1.0112574E0,2.1981986E0,2.1355484E-1,1.0579E0,1.0579E0,2.4714237E-2,-0E0,6.218256E-1,9.960059E-2,8.22636E-3,-3.733113E-2,2.21036E0,3.1989586E0,2.1588297E0,-8.0712205E-1,7.282082E-2,-6.029867E-1,6.255992E-2,-6.406461E-2,2.4735818E0,9.902063E-2,2.1601138E0,1.8106287E-2,2.4645753E0,1.2342317E0,2.1601138E0,-1.4195282E0,2.1355484E-1,1.2419652E-1,1.8542985E-2,1.0579E0,1.0991309E-1,4.257905E-2,-0E0,4.5973875E-2,2.1601138E0,3.8428658E-1,1.0579E0,6.1101615E-2,6.218256E-1,1.8466378E0,8.05525E-2,1.8731575E-2,-1.3638049E-3,-5.7324495E-2,1.0300963E0,7.855525E-2,1.3474345E-1,4.1680597E-2,2.219936E0,1.2342317E0,1.3593714E-1,7.286112E-2,3.655267E-2,7.305636E-2,2.1743662E0,9.419464E-3,9.419464E-3,7.600087E-2,2.572308E-2,-0E0,6.218256E-1,1.1789083E-1,8.708373E-2,1.0300963E0,2.9657984E-2,1.3396344E-1,-4.8662364E-2,1.3908003E-1,1.2464871E-1,5.025967E-2,1.8859893E-2,5.2029498E-2,-2.0289114E-2,3.592621E-2,-1.7287536E-2,9.203467E-2,1.3835916E-1,1.8106287E-2,1.0158426E-2,1.0986926E-1,1.06108464E-1,4.7119457E-2,1.4442994E-1,1.0211422E-1,3.402225E-2,1.07728794E-1,8.691593E-2,2.7143463E-2,9.0905E-2,2.3402596E-2,1.04014196E-1,1.3895377E-2,-1.748353E-2,4.488256E-2,-4.030196E-2,3.0669412E-2,6.1836904E-3,-7.833078E-2,-0E0,1.8731575E-2,-1.5091761E-2,8.025288E-3,1.2502708E-1,3.4599986E-2,5.1792126E-2,-5.923298E-3,1.2106661E-1,6.954204E-2,2.0164138E-2,8.050238E-2,7.5958334E-2,-4.631117E-2,8.140754E-2,3.0559776E-2,8.301955E-3,3.2535475E-2],"split_indices":[27,26,2,28,14,0,0,29,0,0,0,1,0,2,0,0,0,0,0,12,0,7,0,25,25,0,2,0,2,0,0,0,0,14,1,8,0,22,0,21,0,22,0,20,0,0,0,0,0,13,0,0,0,3,0,24,0,8,0,23,2,0,1,23,1,0,0,21,0,0,0,1,16,0,0,24,0,0,1,0,0,0,0,0,0,25,0,0,0,5,0,19,0,22,2,0,0,0,0,0,0,24,0,0,0,0,1,12,0,17,0,0,0,20,0,0,0,11,0,1,1,0,0,0,0,0,0,9,5,17,0,0,0,0,0,7,0,20,0,3,0,20,0,0,0,0,1,0,0,0,0,20,2,1,0,0,0,0,0,0,0,0,0,0,0,24,0,0,0,0,0,15,0,0,0,0,0,0,0,0,0,0,0,0,0,0,0,0,0,0,0,0,0,0,0,0,0,0,0,0,0,0,0,0,0,0,0,0,0,0,0,0,0,0,0,0,0,0,0,0,0,0,0,0,0,0,0,0,0,0,0,0,0],"split_type":[0,0,0,0,0,0,0,0,0,0,0,0,0,0,0,0,0,0,0,0,0,0,0,0,0,0,0,0,0,0,0,0,0,0,0,0,0,0,0,0,0,0,0,0,0,0,0,0,0,0,0,0,0,0,0,0,0,0,0,0,0,0,0,0,0,0,0,0,0,0,0,0,0,0,0,0,0,0,0,0,0,0,0,0,0,0,0,0,0,0,0,0,0,0,0,0,0,0,0,0,0,0,0,0,0,0,0,0,0,0,0,0,0,0,0,0,0,0,0,0,0,0,0,0,0,0,0,0,0,0,0,0,0,0,0,0,0,0,0,0,0,0,0,0,0,0,0,0,0,0,0,0,0,0,0,0,0,0,0,0,0,0,0,0,0,0,0,0,0,0,0,0,0,0,0,0,0,0,0,0,0,0,0,0,0,0,0,0,0,0,0,0,0,0,0,0,0,0,0,0,0,0,0,0,0,0,0,0,0,0,0,0,0,0,0,0,0,0,0,0,0,0,0,0,0,0,0,0,0,0,0,0,0],"sum_hessian":[5.004914E3,3.6634146E3,1.3414994E3,2.9272417E3,7.361729E2,9.168121E2,4.2468735E2,2.2774382E3,6.4980334E2,6.9843744E2,3.7735462E1,3.664615E2,5.503506E2,1.3386879E3,9.387504E2,1.4214641E2,5.0765692E2,3.1854236E2,4.7919132E1,4.373524E2,1.12998215E2,9.007226E2,4.379653E2,6.50528E2,2.8822238E2,9.468879E1,4.745762E1,1.9652435E2,3.1113257E2,4.905592E0,3.1363675E2,3.4611084E1,1.3308045E1,4.1731955E2,2.0032867E1,8.63396E2,3.732661E1,2.2659177E2,2.1137355E2,6.197005E2,3.0827559E1,2.7528198E2,1.2940385E1,3.6014435E1,1.1443185E1,2.1475665E2,9.637593E1,2.6341766E1,8.2693205E0,3.9699942E2,2.0320103E1,1.7161268E1,2.8715985E0,8.2168555E2,4.1710445E1,2.168792E2,9.71257E0,3.223836E1,1.7913518E2,5.8719116E2,3.250934E1,2.9877262E0,2.7839832E1,2.6319315E2,1.2088828E1,1.1459415E1,1.4809697E0,3.405609E1,1.9583422E0,1.2014194E2,9.461471E1,1.0279104E1,8.609683E1,1.749659E1,8.845176E0,3.7698447E2,2.0014975E1,6.2428346E0,1.4077269E1,5.989844E0,1.1171424E1,7.895839E2,3.2101635E1,2.6090837E1,1.5619607E1,2.0616469E2,1.0714512E1,4.223305E0,5.489265E0,3.0548351E1,1.6900096E0,3.8379295E1,1.4075589E2,5.5396704E2,3.3224106E1,2.182703E1,1.0682308E1,1.2388705E0,1.7488557E0,2.4355688E1,3.4841433E0,2.5149039E2,1.1702775E1,8.888707E0,3.2001212E0,4.2342596E0,7.2251563E0,3.2097748E1,1.9583422E0,5.690934E1,3.7705364E1,7.212881E0,3.0662227E0,8.274593E1,3.3508937E0,4.3025603E0,1.319403E1,3.6075476E2,1.6229696E1,5.989451E0,1.4025524E1,3.7428346E0,2.5E0,1.1389875E1,2.687393E0,3.7492034E0,2.2406406E0,6.850757E2,1.04508194E2,1.9597731E2,1.0187381E1,2.4781756E0,8.236337E0,2.2240767E0,1.9992286E0,2.9315E1,1.2333511E0,3.6405933E1,1.9733617E0,3.56862E1,1.0506969E2,5.223251E2,3.1641933E1,2.2731974E1,1.0492133E1,2.4849715E0,1.9342058E1,2.2426525E1,1.9291635E0,1E0,2.4841433E0,2.38282E2,1.3208385E1,1.045601E1,1.2467645E0,6.6399484E0,2.248759E0,1.951362E0,1.248759E0,1.4991271E0,2.7351322E0,5.493561E0,1.7315955E0,3.0917685E1,1.1800643E0,5.43332E1,2.576143E0,7.8689964E1,4.055974E0,4.0723796E0,9.121651E0,3.4157535E2,1.9179426E1,5.250784E0,1.0978912E1,4.989451E0,1E0,1.162337E1,2.4021535E0,4.407402E0,6.9824734E0,6.4830963E2,3.6766087E1,1.0036487E2,4.1433234E0,1.8555605E2,1.0421269E1,2.9899685E0,7.1974125E0,2.2471972E0,5.9891396E0,2.8109154E1,1.205847E0,3.443257E1,1.9733617E0,3.376412E1,1.9220798E0,4.0620533E1,6.444916E1,4.9095514E2,3.1369953E1,3.888295E0,2.775364E1,2.073634E1,1.9956344E0,1.662824E1,2.7138183E0,2.2543332E2,1.2848672E1,9.469864E0,3.7385218E0,7.718603E0,2.737407E0,1.7343564E0,4.905592E0,1E0,1.248759E0,1.2448015E0,4.2487593E0,5.245964E1,1.8735585E0,1.4051689E0,1.170974E0,3.2163135E2,1.9943981E1,4.743851E0,1.4435575E1,3.102736E0,2.148048E0,5.142978E0,6.480392E0,5.488398E0,1.4940753E0],"tree_param":{"num_deleted":"0","num_feature":"30","num_nodes":"233","size_leaf_vector":"0"}},{"base_weights":[1.0619123E0,9.8387676E-1,1.2763509E0,8.8716954E-1,1.3738809E0,1.1774606E0,1.4897447E0,7.5572336E-1,1.3562337E0,1.3860474E0,1.1203754E0,1.3487667E0,1.06252E0,5.218083E-1,1.0950702E0,1.2397808E0,1.3864439E0,1.396542E0,1.151611E0,1.3839772E0,1.0945109E0,9.7638315E-1,1.3902928E0,4.8180863E-1,1.549062E0,1.2375114E0,7.018669E-1,1.3250028E0,1.0473046E0,1.4728854E0,1.3274629E0,7.2597164E-1,1.3921434E0,1.1310945E0,1.5956165E-1,1.0025269E0,4.1871458E-1,4.3483436E-1,1.4468262E0,1.2572613E0,8.160911E-1,5.901854E-1,1.0410317E0,1.1826632E0,5.680752E-1,1.3891248E0,1.177876E0,1.168032E0,2.0800252E-1,1.0287563E0,4.7501147E-1,2.3962109E-1,1.1639069E0,3.8690493E-1,1.5039195E0,1.4719485E0,1.550907E-1,1.2786069E0,8.548598E-1,8.5624075E-1,-1.2819812E-2,6.3494873E-1,-4.7518882E-1,3.7078083E-1,1.3564454E0,1.2112451E0,4.5143065E-1,1.4728156E0,1.2687798E0,6.6359967E-1,1.2319251E0,1.2082753E0,2.8118002E-1,1.0521606E0,5.66332E-1,1.4916773E-1,6.0089207E-1,-1.09747745E-1,4.211081E-1,3.4114465E-1,1.6350415E0,1.3012214E0,8.640458E-1,9.183974E-1,-3.4482858E-1,2.0353925E-1,9.177849E-1,6.8603706E-1,-3.0588427E-1,-7.259717E-1,1.2249226E-1,3.9776152E-1,-3.6222212E-2,1.5934687E0,1.0432777E0,1.2433002E0,4.5143065E-1,1.1124223E0,1.4711218E0,3.428449E-1,1.155774E0,1.2531632E0,5.4775894E-1,1.2392317E0,4.2043337E-1,1.0749378E0,5.919782E-1,2.0227173E-1,6.990934E-1,2.278722E-1,-0E0,4.5316777E-1,9.3577135E-1,7.5777866E-2,-3.4819612E-1,2.9474527E-1,1.6332463E0,1.3266902E0,8.6949E-1,9.696535E-1,1.777528E-1,7.629108E-1,1.1619011E0,5.3527033E-1,-1.3987601E-1,9.863008E-1,3.3256504E-1,7.399664E-1,-3.3790886E-1,-1.7427342E-1,-6.3336724E-1,-1.0079166E0,-4.03164E-1,-0E0,1.7698382E-1,4.1002476E-1,1.2189633E-1,1.091178E0,1.7698382E-1,1.2625227E0,3.965509E-1,1.1459634E0,2.9553118E-1,1.2740968E0,6.797372E-1,1.2704089E0,4.7080892E-1,1.1007285E0,6.1276853E-1,1.6670439E-1,7.762996E-1,2.3608096E-1,-0E0,5.319909E-1,1.1174597E0,8.0974007E-1,1.5745339E-1,2.5183418E-1,1.64878E0,1.3536068E0,8.569781E-1,6.6917855E-1,1.1886268E0,3.1472868E-1,1.0565835E0,-5.2965675E-2,4.2249382E-1,7.984512E-1,2.5360993E-1,1.017794E0,4.0008077E-1,-0E0,4.283012E-1,7.9154634E-1,-2.3277275E-1,-6.6267276E-1,3.147981E-1,-4.4162348E-1,7.376213E-2,1.1691593E0,3.254373E-1,4.917595E-1,-5.5991054E-2,1.3053527E0,4.7080892E-1,1.1282996E0,6.168591E-1,1.084555E0,4.354388E-1,4.1184637E-1,-1.8899171E-1,8.395244E-1,1.4559232E-1,7.5466067E-1,2.7961007E-1,7.6021716E-2,3.0630904E-1],"categories":[],"categories_nodes":[],"categories_segments":[],"categories_sizes":[],"default_left":[true,true,true,true,true,true,false,true,true,true,false,true,true,true,true,true,true,false,false,true,true,true,false,true,false,true,true,false,true,false,true,false,false,true,false,true,true,true,true,true,true,true,true,true,false,true,true,true,false,true,true,true,false,true,false,false,false,true,true,true,false,true,true,true,true,true,false,false,true,true,true,true,false,true,true,true,true,true,false,true,false,true,true,true,false,true,true,true,true,true,true,true,false,false,true,true,false,true,false,false,false,true,false,true,false,true,true,true,true,false,false,true,false,false,false,true,false,true,true,true,true,true,false,false,false,true,true,true,true,true,false,false,false,false,false,false,false,false,false,false,false,true,true,false,false,true,false,true,true,true,true,false,false,true,false,false,true,false,false,false,false,false,false,false,false,false,false,false,false,false,false,false,false,false,false,false,false,false,false,false,false,false,false,false,false,false,false,false,false,false,false,false,false,false,false,false,false],"id":4,"left_children":[1,3,5,7,9,11,-1,13,15,17,-1,19,21,23,25,27,29,-1,-1,31,33,35,-1,37,-1,39,41,-1,43,-1,45,-1,-1,47,-1,49,51,53,55,57,59,61,63,65,-1,67,69,71,-1,73,75,77,-1,79,-1,-1,-1,81,83,85,-1,87,89,91,93,95,-1,-1,97,99,101,103,-1,105,107,109,111,113,-1,115,-1,117,119,121,-1,123,125,127,129,131,133,135,-1,-1,137,139,-1,141,-1,-1,-1,143,-1,145,-1,147,149,151,153,-1,-1,155,-1,-1,-1,157,-1,159,161,163,165,167,-1,-1,-1,169,171,173,175,177,-1,-1,-1,-1,-1,-1,-1,-1,-1,-1,-1,179,181,-1,-1,183,-1,185,187,189,191,-1,-1,193,-1,-1,195,-1,-1,-1,-1,-1,-1,-1,-1,-1,-1,-1,-1,-1,-1,-1,-1,-1,-1,-1,-1,-1,-1,-1,-1,-1,-1,-1,-1,-1,-1,-1,-1,-1,-1,-1,-1,-1,-1,-1,-1],"loss_changes":[8.008447E1,1.333628E2,2.5543457E1,1.7544263E2,6.282959E-1,1.6065552E1,0E0,1.770669E2,4.807129E-1,4.1503906E-2,0E0,1.6466675E0,1.3791565E1,5.376483E1,5.0224243E1,8.798828E-1,5.327759E-1,0E0,0E0,6.358032E-1,1.4523048E0,5.824066E0,0E0,5.7320404E1,0E0,4.536499E0,8.661888E0,0E0,2.389618E0,0E0,1.1327515E0,0E0,0E0,1.3178368E0,0E0,5.161621E0,2.509754E0,6.1955048E1,1.6833954E0,4.374817E0,1.101551E0,9.1978E0,1.2045181E1,2.0302963E-1,0E0,2.1612549E-1,1.8009186E0,1.2233772E0,0E0,3.605133E0,7.7997494E-1,1.1942234E0,0E0,6.623453E1,0E0,0E0,0E0,4.524048E0,2.9909496E0,1.069313E0,0E0,8.835083E0,1.3020781E0,2.3809552E-1,1.3056183E0,2.6520538E-1,0E0,0E0,1.2780609E0,1.3602381E0,5.35202E-1,4.933815E-1,0E0,3.22406E0,8.670702E-1,8.4977955E-2,3.1614208E-1,3.353089E-1,0E0,6.722557E1,0E0,5.1067505E0,2.3021946E0,3.8541603E-1,0E0,5.2821153E-1,8.0635834E-1,9.665886E0,3.1777698E-1,1.2569404E-1,2.1679144E-2,1.4929056E-2,0E0,0E0,6.4185715E-1,2.0023346E-2,0E0,1.1975555E0,0E0,0E0,0E0,1.0346222E-1,0E0,3.4835815E-1,0E0,3.4938354E0,1.4066119E0,4.77525E-2,4.4594908E-1,0E0,0E0,1.1717446E0,0E0,0E0,0E0,6.29991E1,0E0,5.61322E0,1.4175873E0,1.3392639E0,3.4862077E-1,2.2130299E-1,0E0,0E0,0E0,5.0966263E-2,1.42438E-1,8.327232E0,2.1625528E0,5.939573E-1,0E0,0E0,0E0,0E0,0E0,0E0,0E0,0E0,0E0,0E0,0E0,6.379471E-1,2.730174E-1,0E0,0E0,4.2980194E-1,0E0,3.7059937E0,1.2628078E0,7.0551324E-1,4.1199207E-1,0E0,0E0,4.9389553E-1,0E0,0E0,7.340787E-2,0E0,0E0,0E0,0E0,0E0,0E0,0E0,0E0,0E0,0E0,0E0,0E0,0E0,0E0,0E0,0E0,0E0,0E0,0E0,0E0,0E0,0E0,0E0,0E0,0E0,0E0,0E0,0E0,0E0,0E0,0E0,0E0,0E0,0E0,0E0,0E0,0E0,0E0,0E0,0E0],"parents":[2147483647,0,0,1,1,2,2,3,3,4,4,5,5,7,7,8,8,9,9,11,11,12,12,13,13,14,14,15,15,16,16,19,19,20,20,21,21,23,23,25,25,26,26,28,28,30,30,33,33,35,35,36,36,37,37,38,38,39,39,40,40,41,41,42,42,43,43,45,45,46,46,47,47,49,49,50,50,51,51,53,53,57,57,58,58,59,59,61,61,62,62,63,63,64,64,65,65,68,68,69,69,70,70,71,71,73,73,74,74,75,75,76,76,77,77,79,79,81,81,82,82,83,83,85,85,86,86,87,87,88,88,89,89,90,90,91,91,94,94,95,95,97,97,101,101,103,103,105,105,106,106,107,107,108,108,111,111,115,115,117,117,118,118,119,119,120,120,121,121,125,125,126,126,127,127,128,128,129,129,141,141,142,142,145,145,147,147,148,148,149,149,150,150,153,153,156,156],"right_children":[2,4,6,8,10,12,-1,14,16,18,-1,20,22,24,26,28,30,-1,-1,32,34,36,-1,38,-1,40,42,-1,44,-1,46,-1,-1,48,-1,50,52,54,56,58,60,62,64,66,-1,68,70,72,-1,74,76,78,-1,80,-1,-1,-1,82,84,86,-1,88,90,92,94,96,-1,-1,98,100,102,104,-1,106,108,110,112,114,-1,116,-1,118,120,122,-1,124,126,128,130,132,134,136,-1,-1,138,140,-1,142,-1,-1,-1,144,-1,146,-1,148,150,152,154,-1,-1,156,-1,-1,-1,158,-1,160,162,164,166,168,-1,-1,-1,170,172,174,176,178,-1,-1,-1,-1,-1,-1,-1,-1,-1,-1,-1,180,182,-1,-1,184,-1,186,188,190,192,-1,-1,194,-1,-1,196,-1,-1,-1,-1,-1,-1,-1,-1,-1,-1,-1,-1,-1,-1,-1,-1,-1,-1,-1,-1,-1,-1,-1,-1,-1,-1,-1,-1,-1,-1,-1,-1,-1,-1,-1,-1,-1,-1,-1,-1],"split_conditions":[5.149447E-1,9.8159724E-1,3.8428658E-1,1.0876544E0,2.1796067E0,-1.9471592E-1,1.4897446E-1,8.003278E-1,-1.0112574E0,2.1743662E0,1.1203754E-1,1.0579E0,1.2342317E0,2.4645753E0,6.218256E-1,-1.2153928E0,-1.9471592E-1,1.396542E-1,1.151611E-1,-2.134002E0,2.2665148E0,2.2665148E0,1.3902928E-1,2.2365947E0,1.549062E-1,2.2268393E0,1.0579E0,1.3250028E-1,3.8428658E-1,1.4728855E-1,3.8428658E-1,7.259717E-2,1.3921434E-1,2.1743662E0,1.5956165E-2,2.1796067E0,1.0579E0,2.4735818E0,1.8466378E0,2.157547E0,4.1769022E-1,2.167859E0,8.25961E-1,2.1601138E0,5.6807518E-2,8.25961E-1,9.419464E-3,2.1796067E0,2.0800253E-2,2.2394016E0,2.1355484E-1,2.1355484E-1,1.163907E-1,2.9601758E0,1.5039195E-1,1.4719485E-1,1.5509071E-2,2.167859E0,4.1769022E-1,-1.4195282E0,-1.2819812E-3,2.2268393E0,1.6425025E0,2.1928465E0,1.4383671E0,2.167859E0,4.5143064E-2,1.4728157E-1,1.4383671E0,1.0579E0,2.1928465E0,2.2268393E0,2.8118003E-2,2.2268393E0,2.1355484E-1,9.419464E-3,1.0579E0,9.419464E-3,4.2110812E-2,2.8952882E0,1.6350415E-1,2.167859E0,2.1355484E-1,3.8428658E-1,-3.448286E-2,-1.827799E0,1.0579E0,2.219936E0,1.6425025E0,8.25961E-1,1.8466378E0,2.167859E0,-3.6222213E-3,1.5934686E-1,2.167859E0,2.2665148E0,4.5143064E-2,2.1588297E0,1.4711218E-1,3.428449E-2,1.155774E-1,2.1601138E0,5.4775894E-2,2.2394016E0,4.204334E-2,2.1928465E0,2.1355484E-1,1.0579E0,1.0579E0,2.2787219E-2,-0E0,6.218256E-1,9.357714E-2,7.5777867E-3,-3.4819614E-2,3.1989586E0,1.6332464E-1,2.219936E0,3.8428658E-1,-1.4195282E0,3.8428658E-1,2.1355484E-1,1.1619011E-1,5.3527035E-2,-1.3987601E-2,2.1355484E-1,-6.029867E-1,2.157547E0,3.8428658E-1,1.0300963E0,-6.333672E-2,-1.00791655E-1,-4.03164E-2,-0E0,1.7698383E-2,4.100248E-2,1.2189633E-2,1.09117806E-1,1.7698383E-2,1.2625228E-1,3.965509E-2,2.219936E0,1.2342317E0,1.2740968E-1,6.7973725E-2,2.219936E0,4.7080893E-2,2.1981986E0,9.419464E-3,9.419464E-3,1.0300963E0,2.3608096E-2,-0E0,6.218256E-1,1.1174597E-1,8.0974005E-2,1.0300963E0,2.5183419E-2,1.64878E-1,1.3536069E-1,8.5697815E-2,6.691786E-2,1.1886268E-1,3.147287E-2,1.0565835E-1,-5.2965675E-3,4.224938E-2,7.984512E-2,2.5360992E-2,1.017794E-1,4.000808E-2,-0E0,4.283012E-2,7.915463E-2,-2.3277275E-2,-6.6267274E-2,3.147981E-2,-4.4162348E-2,7.3762136E-3,1.16915934E-1,3.254373E-2,4.917595E-2,-5.5991053E-3,1.3053527E-1,4.7080893E-2,1.1282996E-1,6.168591E-2,1.084555E-1,4.3543883E-2,4.1184638E-2,-1.889917E-2,8.395244E-2,1.4559232E-2,7.546607E-2,2.7961006E-2,7.6021715E-3,3.0630905E-2],"split_indices":[27,26,2,28,14,0,0,29,0,15,0,1,0,3,0,0,0,0,0,0,12,12,0,8,0,25,1,0,2,0,2,0,0,15,0,14,1,7,0,23,0,22,0,20,0,0,0,14,0,13,0,0,0,6,0,0,0,22,0,0,0,25,0,16,0,21,0,0,0,1,16,25,0,25,0,0,1,0,0,4,0,21,0,2,0,0,1,24,0,0,0,21,0,0,22,12,0,17,0,0,0,20,0,13,0,16,0,1,1,0,0,0,0,0,0,5,0,24,2,0,2,0,0,0,0,0,0,23,2,0,0,0,0,0,0,0,0,0,0,0,0,24,0,0,0,24,0,11,0,0,0,0,0,0,0,0,0,0,0,0,0,0,0,0,0,0,0,0,0,0,0,0,0,0,0,0,0,0,0,0,0,0,0,0,0,0,0,0,0,0,0,0,0,0,0,0,0],"split_type":[0,0,0,0,0,0,0,0,0,0,0,0,0,0,0,0,0,0,0,0,0,0,0,0,0,0,0,0,0,0,0,0,0,0,0,0,0,0,0,0,0,0,0,0,0,0,0,0,0,0,0,0,0,0,0,0,0,0,0,0,0,0,0,0,0,0,0,0,0,0,0,0,0,0,0,0,0,0,0,0,0,0,0,0,0,0,0,0,0,0,0,0,0,0,0,0,0,0,0,0,0,0,0,0,0,0,0,0,0,0,0,0,0,0,0,0,0,0,0,0,0,0,0,0,0,0,0,0,0,0,0,0,0,0,0,0,0,0,0,0,0,0,0,0,0,0,0,0,0,0,0,0,0,0,0,0,0,0,0,0,0,0,0,0,0,0,0,0,0,0,0,0,0,0,0,0,0,0,0,0,0,0,0,0,0,0,0,0,0,0,0,0,0,0,0,0,0],"sum_hessian":[4.8598374E3,3.5672725E3,1.2925652E3,2.8610967E3,7.061756E2,8.8770483E2,4.048603E2,2.2368684E3,6.2422833E2,6.6957324E2,3.660238E1,3.5214172E2,5.355631E2,1.325634E3,9.1123444E2,1.3723975E2,4.8698856E2,6.3613947E2,3.3433784E1,3.054047E2,4.6737045E1,4.2726035E2,1.0830278E2,1.2773645E3,4.8269604E1,6.673382E2,2.4389624E2,9.1044365E1,4.6195385E1,1.8779176E2,2.991968E2,4.8458033E0,3.0055887E2,4.4775246E1,1.9617976E0,4.0736517E2,1.9895176E1,1.2194554E3,5.790896E1,6.35569E2,3.1769209E1,1.8554073E2,5.8355503E1,3.4876625E1,1.1318763E1,2.0599602E2,9.320078E1,4.2797356E1,1.9778895E0,3.871642E2,2.0200964E1,1.710569E1,2.7894864E0,1.168434E3,5.102156E1,5.666735E1,1.2416071E0,6.0148535E2,3.4083607E1,3.027006E1,1.4991498E0,1.7844702E2,7.0937166E0,1.9369997E1,3.8985504E1,3.2932922E1,1.9436991E0,1.1487248E2,9.1123535E1,1.0126366E1,8.307442E1,4.0592915E1,2.204444E0,3.672991E2,1.9865112E1,6.2382236E0,1.3962741E1,5.983168E0,1.1122521E1,1.1283391E3,4.009484E1,5.6834314E2,3.314223E1,3.259195E1,1.4916569E0,2.9794073E0,2.7290653E1,1.6951308E2,8.933943E0,4.8458037E0,2.247913E0,1.8187061E1,1.1829354E0,1.9863462E1,1.9122042E1,3.0989225E1,1.9436991E0,5.5068058E1,3.6055477E1,7.158012E0,2.9683533E0,7.976662E1,3.3078003E0,3.8506935E1,2.0859792E0,3.487037E2,1.8595394E1,5.982737E0,1.3882376E1,3.7382238E0,2.5E0,1.1321673E1,2.6410675E0,3.7486904E0,2.2344775E0,1.0904105E3,3.7928547E1,5.347255E2,3.361758E1,2.8364569E1,4.777663E0,2.2413261E1,1.0178687E1,1.2313166E0,1.7480906E0,2.3816885E1,3.473767E0,1.6129529E2,8.21778E0,7.4657297E0,1.4682133E0,1.4537411E0,3.3920627E0,1E0,1.2479129E0,1.6947367E1,1.2396952E0,1.7874128E1,1.2479129E0,2.9821215E1,1.16801E0,5.2509224E1,2.5588312E0,7.577833E1,3.9882927E0,3.6377712E1,2.1292217E0,3.2896466E2,1.9739042E1,6.198465E0,1.239693E1,4.982737E0,1E0,1.1543356E1,2.3390195E0,4.344648E0,6.977025E0,1.0580651E3,3.2345432E1,5.0396426E2,3.0761276E1,2.2556475E1,1.1061107E1,3.8651655E0,2.4499405E1,2.8626323E0,1.9150312E0,2.0420523E1,1.9927392E0,2.1903954E1,1.912932E0,1E0,2.473767E0,1.533501E2,7.9451947E0,5.477234E0,2.7405457E0,3.2173548E0,4.248375E0,5.0652412E1,1.8568107E0,1.3861215E0,1.1727097E0,3.424849E1,2.1292217E0,3.099706E2,1.8994036E1,3.9948063E0,1.5744236E1,3.5760374E0,2.6224275E0,1.0966515E1,1.430415E0,5.075337E0,6.468019E0,5.4863944E0,1.4906307E0],"tree_param":{"num_deleted":"0","num_feature":"30","num_nodes":"197","size_leaf_vector":"0"}},{"base_weights":[9.9143827E-1,9.1540116E-1,1.2030708E0,8.219495E-1,1.3007921E0,1.1037722E0,1.4214191E0,6.958654E-1,1.2839569E0,1.3131691E0,1.0475879E0,1.2757373E0,9.9018246E-1,4.7579113E-1,1.0227714E0,1.1669918E0,1.3146005E0,1.323575E0,1.0829635E0,1.311352E0,1.0238142E0,9.0596384E-1,1.3180894E0,6.608783E-1,2.6459393E-1,1.179068E0,6.8044615E-1,1.2512685E0,9.7957194E-1,1.4019265E0,1.2555325E0,9.271859E-1,1.3227223E0,6.739786E-1,1.3196106E0,8.5088605E-1,1.3868837E0,9.3080074E-1,3.8629878E-1,7.115026E-1,-3.321549E-1,2.1696539E-1,1.437778E0,1.1145061E0,1.3129423E0,7.191321E-1,-1.1297635E-1,1.0680517E0,1.343016E0,1.1124332E0,5.2173126E-1,1.3173589E0,1.107248E0,4.5703414E-1,9.8550916E-1,9.94119E-1,3.4469488E-1,9.556314E-1,4.4172755E-1,2.1728313E-1,1.1068188E0,7.677093E-1,-3.2670897E-1,-6.465412E-1,3.8950485E-1,1.716056E-1,1.4954513E0,7.4728197E-1,1.1596406E0,1.2147639E0,1.4597256E0,7.568918E-1,-8.038388E-2,-7.383149E-3,-5.994951E-1,1.3442521E0,5.818291E-1,1.1400617E0,4.2399007E-1,1.4012951E0,1.1978719E0,6.203803E-1,1.1596268E0,7.497792E-1,1.3540474E0,9.277904E-1,1.4336979E0,1.375069E-1,5.603086E-1,-1.02804385E-1,3.8429394E-1,8.237005E-1,-3.0410272E-1,-6.2609833E-1,3.2292017E-1,-9.183986E-1,-1.21103205E-1,1.5589663E-1,4.5596755E-1,1.2521078E-1,1.4976497E0,1.0937763E0,1.8833716E-1,1.2297809E0,9.747243E-1,1.2405355E0,5.540224E-1,7.966186E-1,-6.588301E-2,-3.5361686E-1,5.852481E-1,-3.757954E-1,2.2878213E-1,1.387939E0,2.7771977E-1,2.9840893E-1,1.1330655E0,1.1711528E0,4.2399007E-1,1.0434878E0,1.4009508E0,3.1496814E-1,1.1007998E0,1.1803279E0,5.112576E-1,1.2226323E0,5.210866E-1,8.970254E-1,1.4336979E0,2.1013935E-1,-0E0,4.204058E-1,8.816552E-1,6.98049E-2,-3.2489425E-1,8.832824E-1,-2.0960988E-1,-5.713325E-1,2.8699514E-1,-7.7605736E-1,-1.6637465E-1,6.6417885E-1,1.6013072E-1,-9.957625E-1,-1.8416616E-1,-2.0645133E-1,1.06734544E-1,5.47078E-1,-2.1886049E-1,8.281745E-2,1.5211014E0,1.1473315E0,-1.3621196E-1,-4.732785E-2,1.1524729E0,1.2515215E0,7.739507E-1,1.0247022E0,-1.5869675E-2,1.4050784E0,1.1516216E0,8.418705E-1,4.978516E-3,-1.8954492E-1,5.907964E-1,-5.092022E-1,1.1573052E-1,7.079957E-1,1.6723695E-1,-1.2050661E-2,-5.1942784E-1,1.3968778E-2,6.642133E-1,1.0757096E0,2.7975526E-1,1.2007341E0,6.348933E-1,2.6091653E-1,5.993424E-1,8.664372E-1,1.4253341E0,7.5455314E-1,1.4661868E-1,9.4813704E-1,-2.3713782E-1,-5.447942E-1,5.206447E-1,-8.086938E-1,1.4276657E-1,-4.0185736E-3,4.765975E-1,-8.540062E-1,-1.5936698E-1,-2.0414603E-1,-8.455189E-2,-2.0630346E-1,3.0787817E-1,2.9402476E-2,1.2747988E0,1.2026958E0,2.2245467E-2,1.2739624E0,7.923979E-1,8.6472756E-1,1.2339982E-1,1.0679498E0,2.7651536E-1,-1.23376615E-1,8.2699955E-2,1.1763061E0,4.9809644E-1,8.8906497E-1,3.782965E-2,-1.503573E-1,4.077726E-1,-3.2571413E-2,-7.3889023E-1,4.845148E-2,-6.8418837E-1,-0E0,1.6723695E-1,-1.1843946E-1,6.779783E-2,1.0980415E0,3.061522E-1,4.6719202E-1,-5.2927215E-2,8.331491E-1,1.4241639E0,6.961424E-2,2.8845778E-1],"categories":[],"categories_nodes":[],"categories_segments":[],"categories_sizes":[],"default_left":[true,true,true,true,true,true,false,true,true,true,false,true,true,true,true,true,true,false,true,true,true,true,false,true,true,true,true,true,true,false,true,true,false,false,false,true,false,true,true,true,true,true,false,true,true,true,true,true,false,true,false,true,true,false,false,true,false,true,true,true,false,true,true,true,true,true,false,true,true,true,false,true,true,true,false,true,true,true,false,false,true,true,true,true,false,true,false,true,true,true,false,true,true,true,true,true,true,true,false,true,false,true,true,true,true,true,false,true,true,true,true,true,true,false,false,false,false,false,false,true,false,false,false,true,false,false,true,true,false,false,false,true,false,false,false,true,true,true,true,true,true,false,true,false,false,false,false,false,false,true,false,true,false,false,false,true,true,true,true,false,true,true,true,true,false,true,true,false,false,false,false,true,false,true,true,false,false,false,false,true,false,false,true,false,false,false,false,false,false,false,false,false,false,false,false,false,false,false,false,false,false,false,false,false,false,false,false,false,false,false,false,false,false,false,false,false,false,false,false,false,false,false,false,false,false,false,false,false,false,false,false],"id":5,"left_children":[1,3,5,7,9,11,-1,13,15,17,-1,19,21,23,25,27,29,-1,31,33,35,37,-1,39,41,43,45,47,49,-1,51,53,-1,-1,-1,55,-1,57,59,61,63,65,-1,67,69,71,73,75,-1,77,-1,79,81,-1,-1,83,-1,85,87,89,-1,91,93,95,97,99,-1,101,103,105,-1,107,109,111,-1,113,115,117,-1,-1,119,121,123,125,-1,127,-1,129,131,133,-1,135,137,139,141,143,145,147,-1,149,-1,151,153,155,157,159,-1,161,163,165,167,169,171,-1,-1,-1,-1,-1,-1,173,-1,-1,-1,175,-1,-1,177,179,-1,-1,-1,181,-1,-1,-1,183,185,187,189,191,193,-1,195,-1,-1,-1,-1,-1,-1,197,-1,199,-1,-1,-1,201,203,205,207,-1,209,211,213,215,-1,217,219,-1,-1,-1,-1,221,-1,223,225,-1,-1,-1,-1,227,-1,-1,229,-1,-1,-1,-1,-1,-1,-1,-1,-1,-1,-1,-1,-1,-1,-1,-1,-1,-1,-1,-1,-1,-1,-1,-1,-1,-1,-1,-1,-1,-1,-1,-1,-1,-1,-1,-1,-1,-1,-1,-1,-1,-1,-1,-1,-1,-1,-1,-1],"loss_changes":[7.456445E1,1.2366724E2,2.5309448E1,1.6164087E2,7.371826E-1,1.5469482E1,0E0,1.5737085E2,6.057739E-1,9.70459E-2,0E0,1.6835938E0,1.3175415E1,5.1159363E1,4.638556E1,8.726349E-1,6.392822E-1,0E0,1.0936737E-2,6.473694E-1,1.7291946E0,5.025238E0,0E0,3.53869E1,3.4053703E1,3.7583618E0,8.639343E0,4.5440674E-2,2.2063942E0,0E0,1.1730652E0,1.9194412E-1,0E0,0E0,0E0,2.1206226E0,0E0,4.4046936E0,2.2851787E0,3.9092377E1,8.101475E0,3.4086502E1,0E0,5.998413E0,9.7839355E-1,8.090958E0,7.059014E-1,3.818695E0,0E0,1.752243E-1,0E0,3.0041504E-1,1.5945816E0,0E0,0E0,1.2670059E0,0E0,3.6929321E0,6.82837E-1,1.004072E0,0E0,3.8161774E1,6.987196E0,3.3849497E0,1.0161173E-1,3.506709E1,0E0,9.118702E0,3.5618896E0,1.3624268E0,0E0,8.357742E0,2.5530536E0,1.1625489E0,0E0,5.969696E-1,1.8763165E0,2.3140335E-1,0E0,0E0,1.3067398E0,1.2620206E0,4.8070526E-1,1.2767572E0,0E0,4.3087463E0,0E0,7.223903E-2,2.9611444E-1,2.9008192E-1,0E0,3.7164246E1,5.2333946E0,1.5406427E0,5.416881E-1,7.2421646E-1,2.067171E-1,7.036521E-1,0E0,3.2703003E1,0E0,2.100441E0,4.5154114E0,1.6306152E0,5.2521133E0,6.50177E-2,0E0,8.681625E0,1.1373755E0,7.722912E-1,9.354627E-2,2.6603758E-1,7.541342E-1,0E0,0E0,0E0,0E0,0E0,0E0,1.030098E0,0E0,0E0,0E0,1.00379944E-1,0E0,0E0,1.2197471E-1,4.2841797E0,0E0,0E0,0E0,1.0095241E0,0E0,0E0,0E0,4.150418E1,8.496521E0,3.918313E0,5.899624E-1,7.286997E-1,5.0845295E-3,0E0,5.6244004E-1,0E0,0E0,0E0,0E0,0E0,0E0,3.4310402E1,0E0,1.7415695E0,0E0,0E0,0E0,1.5531616E0,7.5317E-1,2.9628754E0,7.446552E-2,0E0,7.083664E-1,8.669266E0,9.445437E-1,9.5752823E-1,0E0,7.671598E-1,1.9354414E-2,0E0,0E0,0E0,0E0,5.4264545E-2,0E0,5.4969406E-1,2.4553564E-1,0E0,0E0,0E0,0E0,4.8545074E0,0E0,0E0,6.698124E-2,0E0,0E0,0E0,0E0,0E0,0E0,0E0,0E0,0E0,0E0,0E0,0E0,0E0,0E0,0E0,0E0,0E0,0E0,0E0,0E0,0E0,0E0,0E0,0E0,0E0,0E0,0E0,0E0,0E0,0E0,0E0,0E0,0E0,0E0,0E0,0E0,0E0,0E0,0E0,0E0,0E0,0E0,0E0,0E0,0E0,0E0,0E0,0E0],"parents":[2147483647,0,0,1,1,2,2,3,3,4,4,5,5,7,7,8,8,9,9,11,11,12,12,13,13,14,14,15,15,16,16,18,18,19,19,20,20,21,21,23,23,24,24,25,25,26,26,27,27,28,28,30,30,31,31,35,35,37,37,38,38,39,39,40,40,41,41,43,43,44,44,45,45,46,46,47,47,49,49,51,51,52,52,55,55,57,57,58,58,59,59,61,61,62,62,63,63,64,64,65,65,67,67,68,68,69,69,71,71,72,72,73,73,75,75,76,76,77,77,80,80,81,81,82,82,83,83,85,85,87,87,88,88,89,89,91,91,92,92,93,93,94,94,95,95,96,96,97,97,99,99,101,101,102,102,103,103,104,104,105,105,107,107,108,108,109,109,110,110,111,111,112,112,119,119,123,123,126,126,127,127,131,131,135,135,136,136,137,137,138,138,139,139,140,140,142,142,149,149,151,151,155,155,156,156,157,157,158,158,160,160,161,161,162,162,163,163,165,165,166,166,171,171,173,173,174,174,179,179,182,182],"right_children":[2,4,6,8,10,12,-1,14,16,18,-1,20,22,24,26,28,30,-1,32,34,36,38,-1,40,42,44,46,48,50,-1,52,54,-1,-1,-1,56,-1,58,60,62,64,66,-1,68,70,72,74,76,-1,78,-1,80,82,-1,-1,84,-1,86,88,90,-1,92,94,96,98,100,-1,102,104,106,-1,108,110,112,-1,114,116,118,-1,-1,120,122,124,126,-1,128,-1,130,132,134,-1,136,138,140,142,144,146,148,-1,150,-1,152,154,156,158,160,-1,162,164,166,168,170,172,-1,-1,-1,-1,-1,-1,174,-1,-1,-1,176,-1,-1,178,180,-1,-1,-1,182,-1,-1,-1,184,186,188,190,192,194,-1,196,-1,-1,-1,-1,-1,-1,198,-1,200,-1,-1,-1,202,204,206,208,-1,210,212,214,216,-1,218,220,-1,-1,-1,-1,222,-1,224,226,-1,-1,-1,-1,228,-1,-1,230,-1,-1,-1,-1,-1,-1,-1,-1,-1,-1,-1,-1,-1,-1,-1,-1,-1,-1,-1,-1,-1,-1,-1,-1,-1,-1,-1,-1,-1,-1,-1,-1,-1,-1,-1,-1,-1,-1,-1,-1,-1,-1,-1,-1,-1,-1,-1,-1],"split_conditions":[5.149447E-1,9.8159724E-1,3.8428658E-1,1.0876544E0,2.1796067E0,-1.9471592E-1,1.4214192E-1,8.003278E-1,-1.0112574E0,2.1743662E0,1.0475879E-1,1.0579E0,1.2342317E0,2.1355484E-1,4.1769022E-1,-1.2153928E0,-1.9471592E-1,1.3235751E-1,3.8428658E-1,-2.134002E0,-3.9885128E-1,2.2665148E0,1.3180894E-1,2.2268393E0,2.4645753E0,3.8428658E-1,2.2268393E0,-1.6236635E0,3.8428658E-1,1.4019266E-1,3.8428658E-1,-1.2153928E0,1.3227223E-1,6.739786E-2,1.3196106E-1,-6.029867E-1,1.3868837E-1,2.1796067E0,1.0579E0,2.219936E0,3.8428658E-1,2.9601758E0,1.437778E-1,-1.4195282E0,-3.9885128E-1,2.167859E0,1.6425025E0,-1.827799E0,1.343016E-1,2.1601138E0,5.2173126E-2,8.25961E-1,9.419464E-3,4.5703415E-2,9.8550916E-2,-8.0712205E-1,3.446949E-2,2.4735818E0,2.1355484E-1,2.1355484E-1,1.10681884E-1,2.167859E0,3.8428658E-1,-3.9885128E-1,-8.0712205E-1,2.8952882E0,1.4954513E-1,-1.6236635E0,-1.9471592E-1,2.2268393E0,1.4597256E-1,2.157547E0,1.0579E0,8.25961E-1,-5.9949514E-2,2.1796067E0,3.8428658E-1,2.167859E0,4.2399008E-2,1.401295E-1,1.4383671E0,1.0579E0,2.1928465E0,-1.3174605E0,1.3540475E-1,2.2365947E0,1.433698E-1,9.419464E-3,1.0579E0,9.419464E-3,3.8429394E-2,2.157547E0,3.8428658E-1,-1.9471592E-1,-1.2153928E0,1.0579E0,9.419464E-3,-1.2153928E0,4.5596756E-2,3.1989586E0,1.4976497E-1,2.1601138E0,1.0579E0,2.167859E0,2.219936E0,-1.2153928E0,5.5402238E-2,2.219936E0,1.8466378E0,1.6425025E0,1.4383671E0,6.218256E-1,1.0579E0,1.387939E-1,2.7771978E-2,2.9840892E-2,1.13306545E-1,1.1711528E-1,4.2399008E-2,2.1588297E0,1.4009508E-1,3.1496815E-2,1.1007998E-1,2.1601138E0,5.112576E-2,1.2226323E-1,-1.0112574E0,2.4645753E0,1.433698E-1,2.1013936E-2,-0E0,6.218256E-1,8.816552E-2,6.98049E-3,-3.2489426E-2,2.167859E0,3.8428658E-1,-1.9471592E-1,-6.029867E-1,1.0579E0,9.419464E-3,6.641789E-2,-6.029867E-1,-9.957626E-2,-1.8416617E-2,-2.0645132E-2,1.0673455E-2,5.4707803E-2,-2.1886049E-2,2.4735818E0,1.5211014E-1,2.219936E0,-1.3621196E-2,-4.7327853E-3,1.1524729E-1,2.2268393E0,1.0579E0,2.1601138E0,9.419464E-3,1.4050785E-1,2.1588297E0,2.167859E0,1.0579E0,1.4383671E0,5.9079643E-2,6.218256E-1,1.8466378E0,7.0799574E-2,1.6723696E-2,-1.2050661E-3,-5.1942784E-2,1.0300963E0,6.642133E-2,2.219936E0,1.2342317E0,1.20073415E-1,6.348933E-2,2.6091654E-2,5.993424E-2,2.9601758E0,1.425334E-1,7.5455315E-2,1.0300963E0,9.4813704E-2,-2.3713782E-2,-5.447942E-2,5.2064475E-2,-8.0869384E-2,1.4276656E-2,-4.0185737E-4,4.765975E-2,-8.540062E-2,-1.5936699E-2,-2.0414604E-2,-8.45519E-3,-2.0630347E-2,3.0787816E-2,2.9402475E-3,1.2747988E-1,1.2026959E-1,2.2245466E-3,1.2739624E-1,7.923979E-2,8.647276E-2,1.2339982E-2,1.06794976E-1,2.7651537E-2,-1.2337661E-2,8.269995E-3,1.17630616E-1,4.9809646E-2,8.89065E-2,3.782965E-3,-1.5035731E-2,4.0777262E-2,-3.2571412E-3,-7.3889025E-2,4.845148E-3,-6.841884E-2,-0E0,1.6723696E-2,-1.1843946E-2,6.7797834E-3,1.0980415E-1,3.061522E-2,4.6719205E-2,-5.2927216E-3,8.331491E-2,1.424164E-1,6.961424E-3,2.8845778E-2],"split_indices":[27,26,2,28,14,0,0,29,0,15,0,1,0,0,0,0,0,0,2,0,0,12,0,25,3,2,25,0,2,0,2,0,0,0,0,0,0,14,1,24,2,6,0,0,0,22,0,0,0,20,0,0,0,0,0,0,0,7,0,0,0,22,2,0,0,4,0,0,0,25,0,23,1,0,0,14,2,21,0,0,0,1,16,0,0,8,0,0,1,0,0,23,2,0,0,1,0,0,0,5,0,20,1,21,24,0,0,24,0,0,0,0,1,0,0,0,0,0,0,17,0,0,0,20,0,0,0,3,0,0,0,0,0,0,0,21,2,0,0,1,0,0,0,0,0,0,0,0,0,7,0,24,0,0,0,25,1,20,0,0,17,21,1,0,0,0,0,0,0,0,0,0,0,24,0,0,0,0,0,6,0,0,0,0,0,0,0,0,0,0,0,0,0,0,0,0,0,0,0,0,0,0,0,0,0,0,0,0,0,0,0,0,0,0,0,0,0,0,0,0,0,0,0,0,0,0,0,0,0,0,0],"split_type":[0,0,0,0,0,0,0,0,0,0,0,0,0,0,0,0,0,0,0,0,0,0,0,0,0,0,0,0,0,0,0,0,0,0,0,0,0,0,0,0,0,0,0,0,0,0,0,0,0,0,0,0,0,0,0,0,0,0,0,0,0,0,0,0,0,0,0,0,0,0,0,0,0,0,0,0,0,0,0,0,0,0,0,0,0,0,0,0,0,0,0,0,0,0,0,0,0,0,0,0,0,0,0,0,0,0,0,0,0,0,0,0,0,0,0,0,0,0,0,0,0,0,0,0,0,0,0,0,0,0,0,0,0,0,0,0,0,0,0,0,0,0,0,0,0,0,0,0,0,0,0,0,0,0,0,0,0,0,0,0,0,0,0,0,0,0,0,0,0,0,0,0,0,0,0,0,0,0,0,0,0,0,0,0,0,0,0,0,0,0,0,0,0,0,0,0,0,0,0,0,0,0,0,0,0,0,0,0,0,0,0,0,0,0,0,0,0,0,0,0,0,0,0,0,0,0,0,0,0,0,0],"sum_hessian":[4.7010947E3,3.4624148E3,1.2386799E3,2.7892056E3,6.732091E2,8.556226E2,3.8305737E2,2.1931816E3,5.960239E2,6.3784393E2,3.5365185E1,3.3628497E2,5.1933765E2,1.3122355E3,8.809462E2,1.3184831E2,4.6417566E2,6.057146E2,3.212929E1,2.9094788E2,4.5337097E1,4.1620392E2,1.031337E2,6.982127E2,6.1402277E2,6.0312915E2,2.7781708E2,8.703513E1,4.481317E1,1.7811545E2,2.860602E2,2.2425816E1,9.703478E0,4.7783384E0,2.8616953E2,3.2974903E1,1.2362194E1,3.9646414E2,1.9739773E1,6.646145E2,3.359823E1,5.912061E2,2.2816648E1,4.1319003E2,1.899391E2,2.6499023E2,1.2826846E1,3.3259083E1,5.377605E1,3.3625587E1,1.1187585E1,1.9632132E2,8.973887E1,3.4501255E0,1.897569E1,2.4950842E1,8.024063E0,3.7640005E2,2.0064106E1,1.704339E1,2.6963813E0,6.3072864E2,3.3885822E1,2.3475412E1,1.0122817E1,5.720446E2,1.916152E1,4.7147064E1,3.6604297E2,1.1937153E2,7.0567566E1,2.5309053E2,1.1899689E1,1.137353E1,1.453316E0,2.0085032E1,1.3174052E1,3.1697508E1,1.9280803E0,1.0901419E2,8.730713E1,9.964232E0,7.977464E1,1.6698256E1,8.252585E0,3.58465E2,1.7935051E1,6.23297E0,1.3831136E1,5.9754605E0,1.106793E1,5.996354E2,3.1093302E1,2.3220568E1,1.0665254E1,1.4978027E1,8.497385E0,2.9831257E0,7.139691E0,5.537643E2,1.8280342E1,2.8514093E1,1.8632973E1,2.612848E2,1.04758194E2,1.140458E2,5.3257313E0,2.414635E2,1.1627023E1,8.768916E0,3.130772E0,4.2118716E0,7.161659E0,1.900519E1,1.0798404E0,9.718563E0,3.4554892E0,2.9769426E1,1.9280803E0,5.3087444E1,3.421969E1,7.1038113E0,2.8604214E0,7.651133E1,3.2633085E0,4.026578E0,1.2671678E1,3.4052994E2,1.7935051E1,3.7329702E0,2.5E0,1.1244115E1,2.5870209E0,3.748106E0,2.2273548E0,5.670819E2,3.2553455E1,2.143581E1,9.657491E0,1.6990332E1,6.230236E0,2.4497693E0,8.215485E0,1.3228034E1,1.749994E0,6.249999E0,2.2473857E0,1.2345988E0,1.7485269E0,5.384702E2,1.5294059E1,2.7388756E1,1.125339E0,1.5737215E1,2.8957572E0,2.4772415E2,1.3560631E1,9.9693954E1,5.0642414E0,3.4814972E1,7.923082E1,2.2834723E2,1.3116276E1,1.0383099E1,1.243924E0,6.522003E0,2.2469132E0,1.8838588E0,1.2469132E0,1.4991697E0,2.7127018E0,5.4868736E0,1.6747855E0,5.0546402E1,2.5410416E0,7.259397E1,3.9173594E0,3.9323397E0,8.739338E0,3.243884E2,1.6141546E1,4.273039E0,6.9710755E0,5.361983E2,3.0883621E1,2.2486292E1,1.00671625E1,1.5988788E1,5.447023E0,4.1960034E0,5.461488E0,1.47421255E1,2.2482061E0,3.2397227E0,2.9905133E0,2.2467954E0,5.9686894E0,5.1635596E2,2.2114239E1,2.603845E1,1.3503057E0,2.3448813E2,1.3236026E1,1.1611199E1,1.9494315E0,9.3842186E1,5.8517632E0,2.301928E0,2.7623136E0,7.557626E1,3.6545618E0,2.1558723E2,1.2760003E1,9.918113E0,3.1981635E0,8.899414E0,1.4836851E0,1.7304479E0,4.7915554E0,1E0,1.2469132E0,1.2389721E0,4.2479014E0,4.8706142E1,1.840261E0,1.3667066E0,1.174335E0,3.0847104E2,1.5917358E1,5.484395E0,1.4866803E0],"tree_param":{"num_deleted":"0","num_feature":"30","num_nodes":"231","size_leaf_vector":"0"}},{"base_weights":[9.291895E-1,8.782069E-1,1.2381082E0,7.6413476E-1,1.1388526E0,1.2508702E0,9.824353E-1,6.426648E-1,1.2219894E0,1.0382456E0,1.3650099E0,1.2612342E0,1.0245781E0,8.438858E-1,1.2211635E0,4.3510813E-1,9.5819E-1,1.1041944E0,1.2532082E0,1.2129779E0,9.24894E-1,1.2721537E0,1.0360135E0,8.711134E-1,1.2647617E0,6.921787E-1,1.0554411E0,2.9892364E-1,7.1734244E-1,1.0975575E0,5.8983284E-1,1.1894231E0,9.180108E-1,1.342821E0,1.1932286E0,1.2491108E0,9.63434E-1,8.4200335E-1,1.2563293E0,6.8864393E-1,1.2194973E0,4.2762122E-1,9.269942E-1,8.26852E-1,3.5343644E-1,3.4572074E-1,-6.8981117E-1,9.1943425E-1,5.033546E-1,1.1175693E0,6.903988E-1,4.844289E-1,9.1300946E-1,1.0107521E0,1.279856E0,1.0491844E0,4.7939685E-1,1.256083E0,1.0445198E0,6.2650967E-1,1.2575766E0,7.9654795E-1,1.3222989E0,8.155593E-1,1.3649749E0,7.958137E-1,1.8275157E-1,4.2976817E-1,-1.9765534E-1,-5.5758053E-1,-1.072666E0,8.6829376E-1,1.493403E0,-1.5176254E-2,5.9713024E-1,1.1404575E0,7.0383817E-1,1.3668148E-1,7.428407E-1,4.3065134E-1,1.3717625E0,2.7709135E-1,1.221706E0,1.2839879E0,5.443921E-1,1.0761254E0,3.9840043E-1,1.3416978E0,1.1357595E0,5.8074564E-1,1.095766E0,9.3546134E-1,3.1644136E-1,7.8668964E-1,1.3649749E0,2.7055678E-1,8.870042E-1,4.8186144E-1,-5.053232E-1,-2.581679E-1,1.2441056E0,-8.473255E-1,-2.252955E-1,9.033355E-1,1.5932116E-1,-9.4256036E-2,9.398846E-1,1.1154447E0,4.5100635E-1,1.1647136E0,6.999615E-1,7.62015E-1,-3.2266602E-1,4.5407227E-1,-1.6706608E-1,8.290517E-1,1.2579498E-1,3.7743834E-1,1.3559757E0,3.038115E-1,-8.291239E-2,1.4584289E0,9.1621894E-1,1.3274146E0,2.6479927E-1,2.7427247E-1,1.0836905E0,1.1065605E0,3.9840043E-1,9.8169494E-1,1.3425359E0,2.8934836E-1,1.0519593E0,1.1161742E0,4.774361E-1,7.0078635E-1,1.2892805E0,7.583198E-1,1.3570001E0,5.356502E-1,-4.88088E-1,-8.4609115E-1,-2.6041922E-1,-3.1886178E-1,1.2281659E0,-9.40772E-1,-1.9944644E-2,-6.7294605E-2,-3.8361323E-1,9.3951744E-1,1.4775878E-1,6.2186086E-1,-5.2858725E-2,-1.7063713E-1,7.624825E-1,1.1639829E0,1.5105407E-1,8.685414E-2,5.732225E-1,1.1916412E0,7.178717E-1,7.7682745E-1,-3.269663E-1,6.1002064E-1,1.0170734E0,9.028076E-1,3.7557057E-1,3.1879815E-1,1.3559757E0,9.598778E-1,1.5803918E-1,1.1260915E0,3.2167926E-1,1.0128634E0,2.6495805E-1,9.470792E-1,1.2196091E0,5.775776E-1,1.9430783E-1,1.1648073E0,4.8173046E-1,7.27841E-1,1.3558849E0,5.925597E-1,-4.275572E-1,-7.3423386E-1,-2.6280126E-1,-9.1791743E-1,-1.7245233E-1,-1.10061154E-1,-3.3574337E-1,-3.8292217E-1,1.147683E0,-4.7774133E-1,-1.0367824E0,-2.584242E-1,1.1869233E-1,-1.6446142E-1,-7.3820376E-1,9.754397E-1,2.1626593E-1,5.7006776E-1,-4.708758E-2,-1.7820056E-1,2.26218E-1,-2.3836365E-1,8.072219E-1,1.2181381E0,1.5105407E-1,1.9127864E-2,9.112519E-1,9.1478205E-1,3.4984648E-1,1.2220188E0,7.3350763E-1,8.1708384E-1,1.08682565E-1,8.166383E-2,8.4901714E-1,6.444101E-1,1.6745147E-1,-1.6651705E-1,9.791465E-1,2.731122E-1,1.2977298E0,1.149247E0,3.4775952E-1,1.037102E0,3.117596E-1,4.4407618E-1,-5.0031792E-2,9.8964614E-1,1.8209685E-2,1.2599769E0,2.1976371E-1,2.4150443E-1,5.543563E-1,7.027702E-1,1.3510213E0],"categories":[],"categories_nodes":[],"categories_segments":[],"categories_sizes":[],"default_left":[true,true,true,true,true,true,true,true,true,true,false,true,true,true,false,true,true,true,true,true,true,false,true,true,false,true,false,true,true,true,true,true,true,false,true,true,true,true,false,true,false,false,false,false,false,true,true,true,true,true,true,true,true,true,false,true,false,true,true,false,false,true,false,true,false,true,false,true,true,true,false,true,false,true,true,true,true,true,true,true,false,true,true,true,true,true,false,false,true,true,true,true,false,true,false,false,false,true,true,true,false,true,true,true,true,true,false,true,true,true,true,true,false,false,false,true,false,true,false,false,false,false,true,false,false,false,false,true,false,true,false,false,false,true,true,true,false,true,false,true,true,true,true,true,false,true,false,true,true,true,true,false,true,true,false,true,false,true,true,true,true,true,false,true,false,false,true,true,false,false,false,true,false,true,true,true,true,false,false,false,true,true,false,false,false,false,false,false,false,false,false,false,false,false,false,false,false,false,false,false,false,false,false,false,false,false,false,false,false,false,false,false,false,false,false,false,false,false,false,false,false,false,false,false,false,false,false,false,false,false,false,false,false,false,false,false,false,false,false],"id":6,"left_children":[1,3,5,7,9,11,13,15,17,19,-1,21,23,25,-1,27,29,31,33,35,37,-1,39,41,-1,43,-1,45,47,49,51,53,55,-1,57,59,61,63,-1,65,-1,-1,-1,-1,-1,67,69,71,73,75,77,79,81,83,-1,85,-1,87,89,-1,-1,91,-1,93,-1,95,-1,97,99,101,-1,103,-1,105,107,109,111,113,115,117,-1,119,121,123,125,127,-1,-1,129,131,133,135,-1,137,-1,-1,-1,139,141,143,-1,145,147,149,151,153,-1,155,157,159,161,163,-1,-1,-1,165,-1,167,-1,-1,-1,-1,169,-1,-1,-1,-1,171,-1,173,-1,-1,-1,175,177,179,-1,181,-1,183,185,187,189,191,-1,193,-1,195,197,199,201,-1,203,205,-1,207,-1,209,211,213,215,217,-1,219,-1,-1,221,223,-1,-1,-1,225,-1,227,229,231,233,-1,-1,-1,235,237,-1,-1,-1,-1,-1,-1,-1,-1,-1,-1,-1,-1,-1,-1,-1,-1,-1,-1,-1,-1,-1,-1,-1,-1,-1,-1,-1,-1,-1,-1,-1,-1,-1,-1,-1,-1,-1,-1,-1,-1,-1,-1,-1,-1,-1,-1,-1,-1,-1,-1,-1,-1,-1,-1,-1,-1,-1],"loss_changes":[7.030786E1,1.1492163E2,8.584595E-1,1.5004102E2,2.5511353E1,1.2817383E-1,1.2955856E-1,1.4008563E2,7.032471E-1,1.5184692E1,0E0,9.564209E-2,7.232666E-2,8.561134E-2,0E0,4.9597076E1,4.301294E1,9.2822266E-1,7.692261E-1,1.6885376E0,1.2776733E1,0E0,1.1976395E0,1.648674E-1,0E0,5.1592636E-1,0E0,4.0765114E1,1.7747208E1,4.246399E0,7.5835266E0,6.278992E-2,2.049202E0,0E0,1.2423401E0,6.710205E-1,1.6381187E0,4.4995728E0,0E0,5.7814217E-1,0E0,0E0,0E0,0E0,0E0,3.8308304E1,1.4226456E0,5.024582E0,1.0061623E1,4.7406616E0,8.122177E-1,7.988796E0,1.08145485E1,3.501831E0,0E0,1.552124E-1,0E0,4.041443E-1,1.4343796E0,0E0,0E0,1.9175014E0,0E0,5.0932617E0,0E0,2.732458E-1,0E0,3.5567337E1,1.0162468E1,2.8660488E0,0E0,4.827881E0,0E0,2.55352E0,1.2758457E1,5.0943604E0,2.2344398E0,4.5646322E-1,1.4128361E0,7.9070415E0,0E0,2.1623206E-1,1.408474E0,5.359802E-1,1.7298822E0,2.0669556E-1,0E0,0E0,1.3682404E0,1.1781769E0,4.4293976E-1,1.1914291E0,0E0,4.9858856E0,0E0,0E0,0E0,3.6124893E1,3.0139208E0,1.0232357E1,0E0,1.264615E0,3.782196E-1,5.068695E0,1.0770622E0,2.161976E0,0E0,1.5949287E0,6.1038914E0,5.434082E0,2.7304182E0,6.1276627E-1,0E0,0E0,0E0,4.919052E-1,0E0,8.924707E0,0E0,0E0,0E0,0E0,4.8584175E-1,0E0,0E0,0E0,0E0,8.9702606E-2,0E0,8.941841E-1,0E0,0E0,0E0,1.4118958E-1,7.371843E-3,1.2034607E0,0E0,5.50441E0,0E0,3.5980133E1,1.8388796E0,6.0428905E-1,2.3478854E-1,1.0360286E1,0E0,1.6676712E-1,0E0,3.611552E-1,4.890169E-1,4.507004E0,8.4076273E-1,0E0,3.2768804E-1,2.1345522E0,0E0,1.7834892E0,0E0,1.9882777E0,7.564823E0,5.9437256E0,1.8588295E0,1.410286E0,0E0,2.3348427E-1,0E0,0E0,1.8604684E0,6.584587E0,0E0,0E0,0E0,1.1157608E-1,0E0,5.1815414E-1,2.209867E-1,1.2710953E0,1.4388313E0,0E0,0E0,0E0,1.01615906E-1,4.382431E0,0E0,0E0,0E0,0E0,0E0,0E0,0E0,0E0,0E0,0E0,0E0,0E0,0E0,0E0,0E0,0E0,0E0,0E0,0E0,0E0,0E0,0E0,0E0,0E0,0E0,0E0,0E0,0E0,0E0,0E0,0E0,0E0,0E0,0E0,0E0,0E0,0E0,0E0,0E0,0E0,0E0,0E0,0E0,0E0,0E0,0E0,0E0,0E0,0E0,0E0,0E0,0E0,0E0,0E0,0E0,0E0,0E0],"parents":[2147483647,0,0,1,1,2,2,3,3,4,4,5,5,6,6,7,7,8,8,9,9,11,11,12,12,13,13,15,15,16,16,17,17,18,18,19,19,20,20,22,22,23,23,25,25,27,27,28,28,29,29,30,30,31,31,32,32,34,34,35,35,36,36,37,37,39,39,45,45,46,46,47,47,48,48,49,49,50,50,51,51,52,52,53,53,55,55,57,57,58,58,61,61,63,63,65,65,67,67,68,68,69,69,71,71,73,73,74,74,75,75,76,76,77,77,78,78,79,79,81,81,82,82,83,83,84,84,85,85,88,88,89,89,90,90,91,91,93,93,97,97,98,98,99,99,101,101,102,102,103,103,104,104,105,105,107,107,108,108,109,109,110,110,111,111,115,115,117,117,122,122,127,127,129,129,133,133,134,134,135,135,137,137,139,139,140,140,141,141,142,142,143,143,145,145,147,147,148,148,149,149,150,150,152,152,153,153,155,155,157,157,158,158,159,159,160,160,161,161,163,163,166,166,167,167,171,171,173,173,174,174,175,175,176,176,180,180,181,181],"right_children":[2,4,6,8,10,12,14,16,18,20,-1,22,24,26,-1,28,30,32,34,36,38,-1,40,42,-1,44,-1,46,48,50,52,54,56,-1,58,60,62,64,-1,66,-1,-1,-1,-1,-1,68,70,72,74,76,78,80,82,84,-1,86,-1,88,90,-1,-1,92,-1,94,-1,96,-1,98,100,102,-1,104,-1,106,108,110,112,114,116,118,-1,120,122,124,126,128,-1,-1,130,132,134,136,-1,138,-1,-1,-1,140,142,144,-1,146,148,150,152,154,-1,156,158,160,162,164,-1,-1,-1,166,-1,168,-1,-1,-1,-1,170,-1,-1,-1,-1,172,-1,174,-1,-1,-1,176,178,180,-1,182,-1,184,186,188,190,192,-1,194,-1,196,198,200,202,-1,204,206,-1,208,-1,210,212,214,216,218,-1,220,-1,-1,222,224,-1,-1,-1,226,-1,228,230,232,234,-1,-1,-1,236,238,-1,-1,-1,-1,-1,-1,-1,-1,-1,-1,-1,-1,-1,-1,-1,-1,-1,-1,-1,-1,-1,-1,-1,-1,-1,-1,-1,-1,-1,-1,-1,-1,-1,-1,-1,-1,-1,-1,-1,-1,-1,-1,-1,-1,-1,-1,-1,-1,-1,-1,-1,-1,-1,-1,-1,-1,-1],"split_conditions":[9.8159724E-1,5.149447E-1,2.1796067E0,1.0876544E0,3.8428658E-1,2.1743662E0,6.218256E-1,8.003278E-1,-1.0112574E0,-1.9471592E-1,1.36501E-1,2.1928465E0,3.8428658E-1,3.8428658E-1,1.2211635E-1,3.8428658E-1,6.218256E-1,-1.2153928E0,-1.9471592E-1,1.0579E0,1.2342317E0,1.2721537E-1,-6.029867E-1,-1.2153928E0,1.2647617E-1,-3.9885128E-1,1.0554411E-1,2.1601138E0,2.1355484E-1,2.2268393E0,1.0579E0,-1.6236635E0,3.8428658E-1,1.342821E-1,3.8428658E-1,-2.134002E0,-3.9885128E-1,2.4735818E0,1.2563293E-1,-8.0712205E-1,1.2194973E-1,4.2762123E-2,9.269942E-2,8.26852E-2,3.5343643E-2,1.2342317E0,8.25961E-1,1.0579E0,4.1769022E-1,2.157547E0,-1.4195282E0,2.21036E0,8.25961E-1,-1.827799E0,1.279856E-1,2.1601138E0,4.7939684E-2,8.25961E-1,9.419464E-3,6.265097E-2,1.2575766E-1,-6.029867E-1,1.322299E-1,2.2365947E0,1.3649748E-1,-1.6236635E0,1.8275157E-2,2.2268393E0,2.9601758E0,-1.9471592E-1,-1.07266605E-1,2.219936E0,1.493403E-1,2.2365947E0,6.218256E-1,2.1601138E0,4.1769022E-1,-1.827799E0,1.0579E0,2.4735818E0,1.3717626E-1,2.1928465E0,1.4383671E0,2.1796067E0,3.8428658E-1,2.167859E0,3.9840043E-2,1.3416979E-1,1.4383671E0,1.0579E0,2.1928465E0,-8.0712205E-1,3.1644136E-2,2.4645753E0,1.3649748E-1,2.7055679E-2,8.870042E-2,2.167859E0,-3.9885128E-1,2.8952882E0,1.2441056E-1,1.0579E0,4.1769022E-1,2.167859E0,-1.2153928E0,2.21036E0,9.398846E-2,2.1743662E0,8.25961E-1,2.167859E0,4.1769022E-1,3.8428658E-1,-3.2266602E-2,4.540723E-2,-1.6706608E-2,9.419464E-3,1.2579498E-2,2.2365947E0,1.3559757E-1,3.0381149E-2,-8.29124E-3,1.458429E-1,2.167859E0,1.3274147E-1,2.6479928E-2,2.7427247E-2,1.0836905E-1,2.2665148E0,3.9840043E-2,2.1588297E0,1.3425359E-1,2.8934836E-2,1.0519593E-1,6.218256E-1,1.0300963E0,-1.3174605E0,1.2892805E-1,2.9601758E0,1.3570002E-1,2.219936E0,-1.9471592E-1,1.0579E0,2.1355484E-1,3.1989586E0,1.22816585E-1,-1.2153928E0,-1.9944643E-3,9.419464E-3,1.0579E0,2.1588297E0,-1.2153928E0,6.218609E-2,-1.9471592E-1,3.1989586E0,7.624825E-2,2.1601138E0,1.5105407E-2,2.4645753E0,1.2342317E0,2.167859E0,2.1355484E-1,-1.4195282E0,-3.269663E-2,2.1355484E-1,1.0170734E-1,9.0280764E-2,3.8428658E-1,2.4645753E0,1.3559757E-1,9.598778E-2,1.5803918E-2,2.2394016E0,3.2167926E-2,2.1981986E0,1.2342317E0,2.1743662E0,2.219936E0,5.775776E-2,1.9430785E-2,1.1648073E-1,-1.0112574E0,2.8952882E0,1.355885E-1,5.925597E-2,-4.275572E-2,-7.3423386E-2,-2.6280126E-2,-9.179174E-2,-1.7245233E-2,-1.1006116E-2,-3.357434E-2,-3.8292218E-2,1.14768304E-1,-4.7774132E-2,-1.0367824E-1,-2.5842419E-2,1.1869233E-2,-1.6446142E-2,-7.3820375E-2,9.754398E-2,2.1626594E-2,5.7006776E-2,-4.708758E-3,-1.7820057E-2,2.2621801E-2,-2.3836365E-2,8.072219E-2,1.2181381E-1,1.5105407E-2,1.9127865E-3,9.112519E-2,9.1478206E-2,3.498465E-2,1.2220188E-1,7.3350765E-2,8.170839E-2,1.0868257E-2,8.166383E-3,8.490171E-2,6.444101E-2,1.6745148E-2,-1.6651705E-2,9.791465E-2,2.731122E-2,1.2977299E-1,1.1492471E-1,3.4775954E-2,1.037102E-1,3.117596E-2,4.4407617E-2,-5.0031794E-3,9.896462E-2,1.8209685E-3,1.2599769E-1,2.1976372E-2,2.4150444E-2,5.5435628E-2,7.027702E-2,1.3510214E-1],"split_indices":[26,27,14,28,2,15,0,29,0,0,0,16,2,2,0,2,0,0,0,1,0,0,0,0,0,0,0,20,0,25,1,0,2,0,2,0,0,7,0,0,0,0,0,0,0,0,0,1,0,23,0,9,0,0,0,20,0,0,0,0,0,0,0,8,0,0,0,25,6,0,0,24,0,8,0,20,0,0,1,7,0,16,0,14,2,21,0,0,0,1,16,0,0,3,0,0,0,22,0,4,0,1,0,22,0,9,0,19,0,22,0,2,0,0,0,0,0,8,0,0,0,0,22,0,0,0,0,12,0,17,0,0,0,0,0,0,0,6,0,24,0,1,0,5,0,0,0,0,1,17,0,0,0,5,0,20,0,3,0,21,0,0,0,0,0,0,2,3,0,0,0,13,0,11,0,19,24,0,0,0,0,4,0,0,0,0,0,0,0,0,0,0,0,0,0,0,0,0,0,0,0,0,0,0,0,0,0,0,0,0,0,0,0,0,0,0,0,0,0,0,0,0,0,0,0,0,0,0,0,0,0,0,0,0,0,0,0,0,0],"split_type":[0,0,0,0,0,0,0,0,0,0,0,0,0,0,0,0,0,0,0,0,0,0,0,0,0,0,0,0,0,0,0,0,0,0,0,0,0,0,0,0,0,0,0,0,0,0,0,0,0,0,0,0,0,0,0,0,0,0,0,0,0,0,0,0,0,0,0,0,0,0,0,0,0,0,0,0,0,0,0,0,0,0,0,0,0,0,0,0,0,0,0,0,0,0,0,0,0,0,0,0,0,0,0,0,0,0,0,0,0,0,0,0,0,0,0,0,0,0,0,0,0,0,0,0,0,0,0,0,0,0,0,0,0,0,0,0,0,0,0,0,0,0,0,0,0,0,0,0,0,0,0,0,0,0,0,0,0,0,0,0,0,0,0,0,0,0,0,0,0,0,0,0,0,0,0,0,0,0,0,0,0,0,0,0,0,0,0,0,0,0,0,0,0,0,0,0,0,0,0,0,0,0,0,0,0,0,0,0,0,0,0,0,0,0,0,0,0,0,0,0,0,0,0,0,0,0,0,0,0,0,0,0,0,0,0,0,0,0,0],"sum_hessian":[4.5321797E3,3.8934626E3,6.38717E2,2.7109436E3,1.1825193E3,6.046434E2,3.4073586E1,2.1444258E3,5.665178E2,8.223044E2,3.6021487E2,5.7379083E2,3.085255E1,2.4430117E1,9.643468E0,1.2949618E3,8.4946387E2,1.2630647E2,4.4021133E2,3.1973264E2,5.0257172E2,5.4282434E2,3.0966488E1,2.164768E1,9.20487E0,1.6715343E1,7.714774E0,8.7487415E2,4.2008765E2,6.148547E2,2.3460918E2,8.294746E1,4.3359016E1,1.6792868E2,2.7228265E2,2.757933E2,4.3939335E1,4.048587E2,9.771301E1,1.2346116E1,1.8620373E1,3.390636E0,1.8257044E1,1.0929263E1,5.7860804E0,8.359584E2,3.891581E1,2.1435365E2,2.05734E2,5.8438727E2,3.0467405E1,1.787944E2,5.581478E1,3.1966732E1,5.0980724E1,3.2305542E1,1.1053473E1,1.8615459E2,8.612807E1,4.7059245E0,2.710874E2,3.218957E1,1.1749762E1,3.8780862E2,1.7050072E1,9.714977E0,2.6311395E0,7.241574E2,1.1180095E2,3.0751286E1,8.164524E0,1.991245E2,1.52291565E1,3.163684E1,1.7409715E2,5.520885E2,3.229879E1,2.9478917E0,2.7519514E1,1.6997806E2,8.816332E0,1.88602E1,3.6954582E1,1.9051458E1,1.2915274E1,3.0393728E1,1.9118143E0,1.0283368E2,8.332091E1,9.797139E0,7.633093E1,2.423035E1,7.959223E0,3.7075854E2,1.7050072E1,2.0239534E0,7.6910233E0,6.864031E2,3.7754326E1,1.080854E2,3.7155485E0,1.5599169E1,1.5152118E1,1.8948486E2,9.639638E0,3.0049988E1,1.5868533E0,3.6828754E1,1.372684E2,5.217159E2,3.03726E1,3.0810284E1,1.4885038E0,1.1995559E0,1.7483358E0,2.3844484E1,3.6750295E0,1.6206598E2,7.912092E0,1.7702385E1,1.1578164E0,1.869425E1,1.826033E1,1.7982803E1,1.0686548E0,9.610309E0,3.304965E0,2.8481913E1,1.9118143E0,5.1039856E1,3.2281055E1,7.050919E0,2.7462199E0,7.311267E1,3.218257E0,1.6360006E1,7.8703437E0,3.5540857E2,1.5349992E1,6.5076263E2,3.5640434E1,1.4760818E1,2.2993507E1,1.04599594E2,3.4858139E0,1.389301E1,1.7061591E0,8.296891E0,6.8552265E0,1.8059343E2,8.891426E0,2.4242015E0,7.2154365E0,2.8325504E1,1.7244835E0,3.4866924E1,1.9618286E0,3.492309E1,1.0234531E2,4.904911E2,3.1224808E1,2.8484097E1,1.8885034E0,2.1430887E1,9.379397E0,1.9656616E1,4.187868E0,1.5415388E2,7.912092E0,1.701454E1,1.2457905E0,